[
  {
    "observations": [
      [
        0.0,
        0.0,
        -10.0,
        -10.0,
        -10.0,
        -10.0,
        -10.0,
        -10.0,
        -10.0,
        -10.0,
        -10.0,
        -10.0,
        -10.0,
        -10.0,
        0.0,
        0.0,
        0.0,
        -10.0,
        -10.0,
        0.30000001192092896,
        0.0,
        0.0,
        -10.0,
        -10.0,
        -10.0,
        5.0,
        0.0,
        1.0
      ],
      [
        0.10000000149011612,
        0.0,
        -10.0,
        -10.0,
        -10.0,
        -10.0,
        -10.0,
        -10.0,
        -10.0,
        0.0,
        0.0,
        0.0,
        -10.0,
        -10.0,
        0.0,
        0.0,
        0.0,
        -10.0,
        -10.0,
        -10.0,
        5.0,
        0.0,
        -10.0,
        -10.0,
        -10.0,
        -10.0,
        10.0,
        0.6666666865348816
      ],
      [
        0.10000000149011612,
        0.0,
        -10.0,
        -10.0,
        -10.0,
        -10.0,
        -10.0,
        -10.0,
        -10.0,
        0.0,
        0.0,
        0.0,
        -10.0,
        -10.0,
        0.0,
        0.0,
        0.0,
        -10.0,
        -10.0,
        -10.0,
        5.0,
        0.0,
        -10.0,
        -10.0,
        -10.0,
        -10.0,
        10.0,
        0.6666666865348816
      ]
    ],
    "actions": [
      1,
      2,
      0
    ],
    "mo_rewards": [
      [
        0.30000001192092896,
        -1.0
      ],
      [
        0.0,
        -1.0
      ],
      [
        0.0,
        -1.0
      ]
    ],
    "preference_weights_truth": [
      [
        1.0,
        0.0
      ],
      [
        0.9900498390197754,
        0.009950166568160057
      ],
      [
        0.9801986813545227,
        0.019801326096057892
      ]
    ],
    "preference_weights_predicted": [
      [
        0.5,
        0.5
      ],
      [
        0.4753361315941658,
        0.5246638684058342
      ],
      [
        0.9595375541729042,
        0.040462445827095794
      ]
    ]
  },
  {
    "observations": [
      [
        0.0,
        0.0,
        -10.0,
        -10.0,
        -10.0,
        -10.0,
        -10.0,
        -10.0,
        -10.0,
        -10.0,
        -10.0,
        -10.0,
        -10.0,
        -10.0,
        0.0,
        0.0,
        0.0,
        -10.0,
        -10.0,
        0.800000011920929,
        0.0,
        0.0,
        -10.0,
        -10.0,
        -10.0,
        3.0,
        0.0,
        1.0
      ],
      [
        0.10000000149011612,
        0.0,
        -10.0,
        -10.0,
        -10.0,
        -10.0,
        -10.0,
        -10.0,
        -10.0,
        0.0,
        0.0,
        0.0,
        -10.0,
        -10.0,
        0.0,
        0.0,
        0.0,
        -10.0,
        -10.0,
        -10.0,
        3.0,
        0.0,
        -10.0,
        -10.0,
        -10.0,
        -10.0,
        6.0,
        0.6666666865348816
      ]
    ],
    "actions": [
      1,
      0
    ],
    "mo_rewards": [
      [
        0.800000011920929,
        -1.0
      ],
      [
        0.0,
        -1.0
      ]
    ],
    "preference_weights_truth": [
      [
        1.0,
        0.0
      ],
      [
        0.9900498390197754,
        0.009950166568160057
      ]
    ],
    "preference_weights_predicted": [
      [
        0.5,
        0.5
      ],
      [
        0.535733013851231,
        0.4642669861487691
      ]
    ]
  },
  {
    "observations": [
      [
        0.0,
        0.0,
        -10.0,
        -10.0,
        -10.0,
        -10.0,
        -10.0,
        -10.0,
        -10.0,
        -10.0,
        -10.0,
        -10.0,
        -10.0,
        -10.0,
        0.0,
        0.0,
        0.0,
        -10.0,
        -10.0,
        0.30000001192092896,
        0.0,
        0.0,
        -10.0,
        -10.0,
        -10.0,
        3.0,
        0.0,
        1.0
      ]
    ],
    "actions": [
      2
    ],
    "mo_rewards": [
      [
        0.0,
        -1.0
      ]
    ],
    "preference_weights_truth": [
      [
        1.0,
        0.0
      ]
    ],
    "preference_weights_predicted": [
      [
        0.5,
        0.5
      ]
    ]
  },
  {
    "observations": [
      [
        0.0,
        0.0,
        -10.0,
        -10.0,
        -10.0,
        -10.0,
        -10.0,
        -10.0,
        -10.0,
        -10.0,
        -10.0,
        -10.0,
        -10.0,
        -10.0,
        0.0,
        0.0,
        0.0,
        -10.0,
        -10.0,
        0.30000001192092896,
        0.0,
        0.0,
        -10.0,
        -10.0,
        -10.0,
        5.0,
        0.0,
        1.0
      ]
    ],
    "actions": [
      0
    ],
    "mo_rewards": [
      [
        0.0,
        -1.0
      ]
    ],
    "preference_weights_truth": [
      [
        1.0,
        0.0
      ]
    ],
    "preference_weights_predicted": [
      [
        0.5,
        0.5
      ]
    ]
  },
  {
    "observations": [
      [
        0.0,
        0.0,
        -10.0,
        -10.0,
        -10.0,
        -10.0,
        -10.0,
        -10.0,
        -10.0,
        -10.0,
        -10.0,
        -10.0,
        -10.0,
        -10.0,
        0.0,
        0.0,
        0.0,
        -10.0,
        -10.0,
        0.800000011920929,
        0.0,
        0.0,
        -10.0,
        -10.0,
        -10.0,
        8.0,
        0.0,
        1.0
      ],
      [
        0.10000000149011612,
        0.0,
        -10.0,
        -10.0,
        -10.0,
        -10.0,
        -10.0,
        -10.0,
        -10.0,
        0.0,
        0.0,
        0.0,
        -10.0,
        -10.0,
        0.0,
        0.0,
        0.0,
        -10.0,
        -10.0,
        -10.0,
        8.0,
        0.0,
        -10.0,
        -10.0,
        -10.0,
        -10.0,
        6.0,
        0.6666666865348816
      ],
      [
        0.10000000149011612,
        0.0,
        -10.0,
        -10.0,
        -10.0,
        -10.0,
        -10.0,
        -10.0,
        -10.0,
        0.0,
        0.0,
        0.0,
        -10.0,
        -10.0,
        0.0,
        0.0,
        0.0,
        -10.0,
        -10.0,
        -10.0,
        8.0,
        0.0,
        -10.0,
        -10.0,
        -10.0,
        -10.0,
        6.0,
        0.6666666865348816
      ],
      [
        0.10000000149011612,
        0.0,
        -10.0,
        -10.0,
        -10.0,
        -10.0,
        -10.0,
        -10.0,
        -10.0,
        0.0,
        0.0,
        0.0,
        -10.0,
        -10.0,
        0.0,
        0.0,
        0.0,
        -10.0,
        -10.0,
        -10.0,
        8.0,
        0.0,
        -10.0,
        -10.0,
        -10.0,
        -10.0,
        6.0,
        0.6666666865348816
      ],
      [
        0.10000000149011612,
        0.0,
        -10.0,
        -10.0,
        -10.0,
        -10.0,
        -10.0,
        -10.0,
        -10.0,
        0.0,
        0.0,
        0.0,
        -10.0,
        -10.0,
        0.0,
        0.0,
        0.0,
        -10.0,
        -10.0,
        -10.0,
        8.0,
        0.0,
        -10.0,
        -10.0,
        -10.0,
        -10.0,
        6.0,
        0.6666666865348816
      ],
      [
        0.10000000149011612,
        0.0,
        -10.0,
        -10.0,
        -10.0,
        -10.0,
        -10.0,
        -10.0,
        -10.0,
        0.0,
        0.0,
        0.0,
        -10.0,
        -10.0,
        0.0,
        0.0,
        0.0,
        -10.0,
        -10.0,
        -10.0,
        8.0,
        0.0,
        -10.0,
        -10.0,
        -10.0,
        -10.0,
        6.0,
        0.6666666865348816
      ],
      [
        0.10000000149011612,
        0.0,
        -10.0,
        -10.0,
        -10.0,
        -10.0,
        -10.0,
        -10.0,
        -10.0,
        0.0,
        0.0,
        0.0,
        -10.0,
        -10.0,
        0.0,
        0.0,
        0.0,
        -10.0,
        -10.0,
        -10.0,
        8.0,
        0.0,
        -10.0,
        -10.0,
        -10.0,
        -10.0,
        6.0,
        0.6666666865348816
      ],
      [
        0.10000000149011612,
        0.0,
        -10.0,
        -10.0,
        -10.0,
        -10.0,
        -10.0,
        -10.0,
        -10.0,
        0.0,
        0.0,
        0.0,
        -10.0,
        -10.0,
        0.0,
        0.0,
        0.0,
        -10.0,
        -10.0,
        -10.0,
        8.0,
        0.0,
        -10.0,
        -10.0,
        -10.0,
        -10.0,
        6.0,
        0.6666666865348816
      ],
      [
        0.10000000149011612,
        0.0,
        -10.0,
        -10.0,
        -10.0,
        -10.0,
        -10.0,
        -10.0,
        -10.0,
        0.0,
        0.0,
        0.0,
        -10.0,
        -10.0,
        0.0,
        0.0,
        0.0,
        -10.0,
        -10.0,
        -10.0,
        8.0,
        0.0,
        -10.0,
        -10.0,
        -10.0,
        -10.0,
        6.0,
        0.6666666865348816
      ],
      [
        0.10000000149011612,
        0.0,
        -10.0,
        -10.0,
        -10.0,
        -10.0,
        -10.0,
        -10.0,
        -10.0,
        0.0,
        0.0,
        0.0,
        -10.0,
        -10.0,
        0.0,
        0.0,
        0.0,
        -10.0,
        -10.0,
        -10.0,
        8.0,
        0.0,
        -10.0,
        -10.0,
        -10.0,
        -10.0,
        6.0,
        0.6666666865348816
      ],
      [
        0.10000000149011612,
        0.0,
        -10.0,
        -10.0,
        -10.0,
        -10.0,
        -10.0,
        -10.0,
        -10.0,
        0.0,
        0.0,
        0.0,
        -10.0,
        -10.0,
        0.0,
        0.0,
        0.0,
        -10.0,
        -10.0,
        -10.0,
        8.0,
        0.0,
        -10.0,
        -10.0,
        -10.0,
        -10.0,
        6.0,
        0.6666666865348816
      ],
      [
        0.10000000149011612,
        0.0,
        -10.0,
        -10.0,
        -10.0,
        -10.0,
        -10.0,
        -10.0,
        -10.0,
        0.0,
        0.0,
        0.0,
        -10.0,
        -10.0,
        0.0,
        0.0,
        0.0,
        -10.0,
        -10.0,
        -10.0,
        8.0,
        0.0,
        -10.0,
        -10.0,
        -10.0,
        -10.0,
        6.0,
        0.6666666865348816
      ],
      [
        0.10000000149011612,
        0.0,
        -10.0,
        -10.0,
        -10.0,
        -10.0,
        -10.0,
        -10.0,
        -10.0,
        0.0,
        0.0,
        0.0,
        -10.0,
        -10.0,
        0.0,
        0.0,
        0.0,
        -10.0,
        -10.0,
        -10.0,
        8.0,
        0.0,
        -10.0,
        -10.0,
        -10.0,
        -10.0,
        6.0,
        0.6666666865348816
      ],
      [
        0.10000000149011612,
        0.0,
        -10.0,
        -10.0,
        -10.0,
        -10.0,
        -10.0,
        -10.0,
        -10.0,
        0.0,
        0.0,
        0.0,
        -10.0,
        -10.0,
        0.0,
        0.0,
        0.0,
        -10.0,
        -10.0,
        -10.0,
        8.0,
        0.0,
        -10.0,
        -10.0,
        -10.0,
        -10.0,
        6.0,
        0.6666666865348816
      ],
      [
        0.10000000149011612,
        0.0,
        -10.0,
        -10.0,
        -10.0,
        -10.0,
        -10.0,
        -10.0,
        -10.0,
        0.0,
        0.0,
        0.0,
        -10.0,
        -10.0,
        0.0,
        0.0,
        0.0,
        -10.0,
        -10.0,
        -10.0,
        8.0,
        0.0,
        -10.0,
        -10.0,
        -10.0,
        -10.0,
        6.0,
        0.6666666865348816
      ],
      [
        0.10000000149011612,
        0.0,
        -10.0,
        -10.0,
        -10.0,
        -10.0,
        -10.0,
        -10.0,
        -10.0,
        0.0,
        0.0,
        0.0,
        -10.0,
        -10.0,
        0.0,
        0.0,
        0.0,
        -10.0,
        -10.0,
        -10.0,
        8.0,
        0.0,
        -10.0,
        -10.0,
        -10.0,
        -10.0,
        6.0,
        0.6666666865348816
      ],
      [
        0.10000000149011612,
        0.0,
        -10.0,
        -10.0,
        -10.0,
        -10.0,
        -10.0,
        -10.0,
        -10.0,
        0.0,
        0.0,
        0.0,
        -10.0,
        -10.0,
        0.0,
        0.0,
        0.0,
        -10.0,
        -10.0,
        -10.0,
        8.0,
        0.0,
        -10.0,
        -10.0,
        -10.0,
        -10.0,
        6.0,
        0.6666666865348816
      ],
      [
        0.10000000149011612,
        0.0,
        -10.0,
        -10.0,
        -10.0,
        -10.0,
        -10.0,
        -10.0,
        -10.0,
        0.0,
        0.0,
        0.0,
        -10.0,
        -10.0,
        0.0,
        0.0,
        0.0,
        -10.0,
        -10.0,
        -10.0,
        8.0,
        0.0,
        -10.0,
        -10.0,
        -10.0,
        -10.0,
        6.0,
        0.6666666865348816
      ],
      [
        0.10000000149011612,
        0.0,
        -10.0,
        -10.0,
        -10.0,
        -10.0,
        -10.0,
        -10.0,
        -10.0,
        0.0,
        0.0,
        0.0,
        -10.0,
        -10.0,
        0.0,
        0.0,
        0.0,
        -10.0,
        -10.0,
        -10.0,
        8.0,
        0.0,
        -10.0,
        -10.0,
        -10.0,
        -10.0,
        6.0,
        0.6666666865348816
      ],
      [
        0.10000000149011612,
        0.0,
        -10.0,
        -10.0,
        -10.0,
        -10.0,
        -10.0,
        -10.0,
        -10.0,
        0.0,
        0.0,
        0.0,
        -10.0,
        -10.0,
        0.0,
        0.0,
        0.0,
        -10.0,
        -10.0,
        -10.0,
        8.0,
        0.0,
        -10.0,
        -10.0,
        -10.0,
        -10.0,
        6.0,
        0.6666666865348816
      ],
      [
        0.10000000149011612,
        0.0,
        -10.0,
        -10.0,
        -10.0,
        -10.0,
        -10.0,
        -10.0,
        -10.0,
        0.0,
        0.0,
        0.0,
        -10.0,
        -10.0,
        0.0,
        0.0,
        0.0,
        -10.0,
        -10.0,
        -10.0,
        8.0,
        0.0,
        -10.0,
        -10.0,
        -10.0,
        -10.0,
        6.0,
        0.6666666865348816
      ],
      [
        0.10000000149011612,
        0.0,
        -10.0,
        -10.0,
        -10.0,
        -10.0,
        -10.0,
        -10.0,
        -10.0,
        0.0,
        0.0,
        0.0,
        -10.0,
        -10.0,
        0.0,
        0.0,
        0.0,
        -10.0,
        -10.0,
        -10.0,
        8.0,
        0.0,
        -10.0,
        -10.0,
        -10.0,
        -10.0,
        6.0,
        0.6666666865348816
      ],
      [
        0.10000000149011612,
        0.0,
        -10.0,
        -10.0,
        -10.0,
        -10.0,
        -10.0,
        -10.0,
        -10.0,
        0.0,
        0.0,
        0.0,
        -10.0,
        -10.0,
        0.0,
        0.0,
        0.0,
        -10.0,
        -10.0,
        -10.0,
        8.0,
        0.0,
        -10.0,
        -10.0,
        -10.0,
        -10.0,
        6.0,
        0.6666666865348816
      ],
      [
        0.10000000149011612,
        0.0,
        -10.0,
        -10.0,
        -10.0,
        -10.0,
        -10.0,
        -10.0,
        -10.0,
        0.0,
        0.0,
        0.0,
        -10.0,
        -10.0,
        0.0,
        0.0,
        0.0,
        -10.0,
        -10.0,
        -10.0,
        8.0,
        0.0,
        -10.0,
        -10.0,
        -10.0,
        -10.0,
        6.0,
        0.6666666865348816
      ],
      [
        0.10000000149011612,
        0.0,
        -10.0,
        -10.0,
        -10.0,
        -10.0,
        -10.0,
        -10.0,
        -10.0,
        0.0,
        0.0,
        0.0,
        -10.0,
        -10.0,
        0.0,
        0.0,
        0.0,
        -10.0,
        -10.0,
        -10.0,
        8.0,
        0.0,
        -10.0,
        -10.0,
        -10.0,
        -10.0,
        6.0,
        0.6666666865348816
      ]
    ],
    "actions": [
      1,
      2,
      2,
      2,
      2,
      2,
      2,
      2,
      2,
      2,
      2,
      2,
      2,
      2,
      2,
      2,
      2,
      2,
      2,
      2,
      2,
      2,
      2,
      2,
      0
    ],
    "mo_rewards": [
      [
        0.800000011920929,
        -1.0
      ],
      [
        0.0,
        -1.0
      ],
      [
        0.0,
        -1.0
      ],
      [
        0.0,
        -1.0
      ],
      [
        0.0,
        -1.0
      ],
      [
        0.0,
        -1.0
      ],
      [
        0.0,
        -1.0
      ],
      [
        0.0,
        -1.0
      ],
      [
        0.0,
        -1.0
      ],
      [
        0.0,
        -1.0
      ],
      [
        0.0,
        -1.0
      ],
      [
        0.0,
        -1.0
      ],
      [
        0.0,
        -1.0
      ],
      [
        0.0,
        -1.0
      ],
      [
        0.0,
        -1.0
      ],
      [
        0.0,
        -1.0
      ],
      [
        0.0,
        -1.0
      ],
      [
        0.0,
        -1.0
      ],
      [
        0.0,
        -1.0
      ],
      [
        0.0,
        -1.0
      ],
      [
        0.0,
        -1.0
      ],
      [
        0.0,
        -1.0
      ],
      [
        0.0,
        -1.0
      ],
      [
        0.0,
        -1.0
      ],
      [
        0.0,
        -1.0
      ]
    ],
    "preference_weights_truth": [
      [
        1.0,
        0.0
      ],
      [
        0.9900498390197754,
        0.009950166568160057
      ],
      [
        0.9801986813545227,
        0.019801326096057892
      ],
      [
        0.9704455137252808,
        0.029554465785622597
      ],
      [
        0.9607894420623779,
        0.03921056166291237
      ],
      [
        0.951229453086853,
        0.04877057671546936
      ],
      [
        0.9417645335197449,
        0.05823546648025513
      ],
      [
        0.9323938488960266,
        0.06760618090629578
      ],
      [
        0.9231163263320923,
        0.07688365131616592
      ],
      [
        0.9139311909675598,
        0.08606881648302078
      ],
      [
        0.904837429523468,
        0.09516258537769318
      ],
      [
        0.8958341479301453,
        0.10416586697101593
      ],
      [
        0.8869204521179199,
        0.11307956278324127
      ],
      [
        0.8780954480171204,
        0.12190456688404083
      ],
      [
        0.869358241558075,
        0.13064175844192505
      ],
      [
        0.8607079982757568,
        0.13929201662540436
      ],
      [
        0.8521437644958496,
        0.147856205701828
      ],
      [
        0.843664824962616,
        0.15633518993854523
      ],
      [
        0.8352702260017395,
        0.1647297888994217
      ],
      [
        0.8269591331481934,
        0.17304086685180664
      ],
      [
        0.8187307715415955,
        0.18126924335956573
      ],
      [
        0.8105842471122742,
        0.18941575288772583
      ],
      [
        0.8025187849998474,
        0.1974812000989914
      ],
      [
        0.7945336103439331,
        0.2054664045572281
      ],
      [
        0.7866278886795044,
        0.213372141122818
      ]
    ],
    "preference_weights_predicted": [
      [
        0.5,
        0.5
      ],
      [
        0.4350443018978476,
        0.5649556981021524
      ],
      [
        0.8982311669939534,
        0.10176883300604656
      ],
      [
        1.0,
        0.0
      ],
      [
        1.0,
        0.0
      ],
      [
        0.9930018413878958,
        0.006998158612104205
      ],
      [
        0.9532970378145272,
        0.04670296218547282
      ],
      [
        0.9001726785600126,
        0.09982732143998743
      ],
      [
        0.8425669197480552,
        0.15743308025194483
      ],
      [
        0.7844152112999244,
        0.21558478870007564
      ],
      [
        0.7273843772691366,
        0.2726156227308635
      ],
      [
        0.6721427160374943,
        0.3278572839625057
      ],
      [
        0.6189258905762408,
        0.3810741094237592
      ],
      [
        0.5677843993964968,
        0.43221560060350317
      ],
      [
        0.5186908616551302,
        0.4813091383448698
      ],
      [
        0.471586309468804,
        0.528413690531196
      ],
      [
        0.42640008413221403,
        0.573599915867786
      ],
      [
        0.38305833748567786,
        0.6169416625143223
      ],
      [
        0.3414876212398763,
        0.6585123787601237
      ],
      [
        0.3016163615464565,
        0.6983836384535435
      ],
      [
        0.2633754249454674,
        0.7366245750545326
      ],
      [
        0.22669829552369106,
        0.773301704476309
      ],
      [
        0.1915210872342424,
        0.8084789127657576
      ],
      [
        0.15778248779038848,
        0.8422175122096115
      ],
      [
        0.12542367558020026,
        0.8745763244197997
      ]
    ]
  },
  {
    "observations": [
      [
        0.0,
        0.0,
        -10.0,
        -10.0,
        -10.0,
        -10.0,
        -10.0,
        -10.0,
        -10.0,
        -10.0,
        -10.0,
        -10.0,
        -10.0,
        -10.0,
        0.0,
        0.0,
        0.0,
        -10.0,
        -10.0,
        0.30000001192092896,
        0.0,
        0.0,
        -10.0,
        -10.0,
        -10.0,
        3.0,
        0.0,
        1.0
      ]
    ],
    "actions": [
      2
    ],
    "mo_rewards": [
      [
        0.0,
        -1.0
      ]
    ],
    "preference_weights_truth": [
      [
        1.0,
        0.0
      ]
    ],
    "preference_weights_predicted": [
      [
        0.5,
        0.5
      ]
    ]
  },
  {
    "observations": [
      [
        0.0,
        0.0,
        -10.0,
        -10.0,
        -10.0,
        -10.0,
        -10.0,
        -10.0,
        -10.0,
        -10.0,
        -10.0,
        -10.0,
        -10.0,
        -10.0,
        0.0,
        0.0,
        0.0,
        -10.0,
        -10.0,
        0.5,
        0.0,
        0.0,
        -10.0,
        -10.0,
        -10.0,
        5.0,
        0.0,
        1.0
      ]
    ],
    "actions": [
      2
    ],
    "mo_rewards": [
      [
        0.0,
        -1.0
      ]
    ],
    "preference_weights_truth": [
      [
        1.0,
        0.0
      ]
    ],
    "preference_weights_predicted": [
      [
        0.5,
        0.5
      ]
    ]
  },
  {
    "observations": [
      [
        0.0,
        0.0,
        -10.0,
        -10.0,
        -10.0,
        -10.0,
        -10.0,
        -10.0,
        -10.0,
        -10.0,
        -10.0,
        -10.0,
        -10.0,
        -10.0,
        0.0,
        0.0,
        0.0,
        -10.0,
        -10.0,
        0.5,
        0.0,
        0.0,
        -10.0,
        -10.0,
        -10.0,
        8.0,
        0.0,
        1.0
      ],
      [
        0.10000000149011612,
        0.0,
        -10.0,
        -10.0,
        -10.0,
        -10.0,
        -10.0,
        -10.0,
        -10.0,
        0.0,
        0.0,
        0.0,
        -10.0,
        -10.0,
        0.0,
        0.0,
        0.0,
        -10.0,
        -10.0,
        -10.0,
        8.0,
        0.0,
        -10.0,
        -10.0,
        -10.0,
        -10.0,
        12.0,
        0.6666666865348816
      ],
      [
        0.10000000149011612,
        0.0,
        -10.0,
        -10.0,
        -10.0,
        -10.0,
        -10.0,
        -10.0,
        -10.0,
        0.0,
        0.0,
        0.0,
        -10.0,
        -10.0,
        0.0,
        0.0,
        0.0,
        -10.0,
        -10.0,
        -10.0,
        8.0,
        0.0,
        -10.0,
        -10.0,
        -10.0,
        -10.0,
        12.0,
        0.6666666865348816
      ]
    ],
    "actions": [
      1,
      2,
      0
    ],
    "mo_rewards": [
      [
        0.5,
        -1.0
      ],
      [
        0.0,
        -1.0
      ],
      [
        0.0,
        -1.0
      ]
    ],
    "preference_weights_truth": [
      [
        1.0,
        0.0
      ],
      [
        0.9900498390197754,
        0.009950166568160057
      ],
      [
        0.9801986813545227,
        0.019801326096057892
      ]
    ],
    "preference_weights_predicted": [
      [
        0.5,
        0.5
      ],
      [
        0.4334169573276791,
        0.5665830426723208
      ],
      [
        0.8599863078564379,
        0.14001369214356207
      ]
    ]
  },
  {
    "observations": [
      [
        0.0,
        0.0,
        -10.0,
        -10.0,
        -10.0,
        -10.0,
        -10.0,
        -10.0,
        -10.0,
        -10.0,
        -10.0,
        -10.0,
        -10.0,
        -10.0,
        0.0,
        0.0,
        0.0,
        -10.0,
        -10.0,
        0.800000011920929,
        0.0,
        0.0,
        -10.0,
        -10.0,
        -10.0,
        5.0,
        0.0,
        1.0
      ],
      [
        0.10000000149011612,
        0.0,
        -10.0,
        -10.0,
        -10.0,
        -10.0,
        -10.0,
        -10.0,
        -10.0,
        0.0,
        0.0,
        0.0,
        -10.0,
        -10.0,
        0.0,
        0.0,
        0.0,
        -10.0,
        -10.0,
        -10.0,
        5.0,
        0.0,
        -10.0,
        -10.0,
        -10.0,
        -10.0,
        10.0,
        0.6666666865348816
      ]
    ],
    "actions": [
      1,
      0
    ],
    "mo_rewards": [
      [
        0.800000011920929,
        -1.0
      ],
      [
        0.0,
        -1.0
      ]
    ],
    "preference_weights_truth": [
      [
        1.0,
        0.0
      ],
      [
        0.9900498390197754,
        0.009950166568160057
      ]
    ],
    "preference_weights_predicted": [
      [
        0.5,
        0.5
      ],
      [
        0.47844932494146064,
        0.5215506750585395
      ]
    ]
  },
  {
    "observations": [
      [
        0.0,
        0.0,
        -10.0,
        -10.0,
        -10.0,
        -10.0,
        -10.0,
        -10.0,
        -10.0,
        -10.0,
        -10.0,
        -10.0,
        -10.0,
        -10.0,
        0.0,
        0.0,
        0.0,
        -10.0,
        -10.0,
        0.5,
        0.0,
        0.0,
        -10.0,
        -10.0,
        -10.0,
        5.0,
        0.0,
        1.0
      ]
    ],
    "actions": [
      0
    ],
    "mo_rewards": [
      [
        0.0,
        -1.0
      ]
    ],
    "preference_weights_truth": [
      [
        1.0,
        0.0
      ]
    ],
    "preference_weights_predicted": [
      [
        0.5,
        0.5
      ]
    ]
  },
  {
    "observations": [
      [
        0.0,
        0.0,
        -10.0,
        -10.0,
        -10.0,
        -10.0,
        -10.0,
        -10.0,
        -10.0,
        -10.0,
        -10.0,
        -10.0,
        -10.0,
        -10.0,
        0.0,
        0.0,
        0.0,
        -10.0,
        -10.0,
        0.5,
        0.0,
        0.0,
        -10.0,
        -10.0,
        -10.0,
        3.0,
        0.0,
        1.0
      ]
    ],
    "actions": [
      2
    ],
    "mo_rewards": [
      [
        0.0,
        -1.0
      ]
    ],
    "preference_weights_truth": [
      [
        1.0,
        0.0
      ]
    ],
    "preference_weights_predicted": [
      [
        0.5,
        0.5
      ]
    ]
  },
  {
    "observations": [
      [
        0.0,
        0.0,
        -10.0,
        -10.0,
        -10.0,
        -10.0,
        -10.0,
        -10.0,
        -10.0,
        -10.0,
        -10.0,
        -10.0,
        -10.0,
        -10.0,
        0.0,
        0.0,
        0.0,
        -10.0,
        -10.0,
        0.30000001192092896,
        0.0,
        0.0,
        -10.0,
        -10.0,
        -10.0,
        8.0,
        0.0,
        1.0
      ],
      [
        0.10000000149011612,
        0.0,
        -10.0,
        -10.0,
        -10.0,
        -10.0,
        -10.0,
        -10.0,
        -10.0,
        0.0,
        0.0,
        0.0,
        -10.0,
        -10.0,
        0.0,
        0.0,
        0.0,
        -10.0,
        -10.0,
        -10.0,
        8.0,
        0.0,
        -10.0,
        -10.0,
        -10.0,
        -10.0,
        6.0,
        0.6666666865348816
      ],
      [
        0.10000000149011612,
        0.0,
        -10.0,
        -10.0,
        -10.0,
        -10.0,
        -10.0,
        -10.0,
        -10.0,
        0.0,
        0.0,
        0.0,
        -10.0,
        -10.0,
        0.0,
        0.0,
        0.0,
        -10.0,
        -10.0,
        -10.0,
        8.0,
        0.0,
        -10.0,
        -10.0,
        -10.0,
        -10.0,
        6.0,
        0.6666666865348816
      ],
      [
        0.10000000149011612,
        0.0,
        -10.0,
        -10.0,
        -10.0,
        -10.0,
        -10.0,
        -10.0,
        -10.0,
        0.0,
        0.0,
        0.0,
        -10.0,
        -10.0,
        0.0,
        0.0,
        0.0,
        -10.0,
        -10.0,
        -10.0,
        8.0,
        0.0,
        -10.0,
        -10.0,
        -10.0,
        -10.0,
        6.0,
        0.6666666865348816
      ],
      [
        0.10000000149011612,
        0.0,
        -10.0,
        -10.0,
        -10.0,
        -10.0,
        -10.0,
        -10.0,
        -10.0,
        0.0,
        0.0,
        0.0,
        -10.0,
        -10.0,
        0.0,
        0.0,
        0.0,
        -10.0,
        -10.0,
        -10.0,
        8.0,
        0.0,
        -10.0,
        -10.0,
        -10.0,
        -10.0,
        6.0,
        0.6666666865348816
      ],
      [
        0.10000000149011612,
        0.0,
        -10.0,
        -10.0,
        -10.0,
        -10.0,
        -10.0,
        -10.0,
        -10.0,
        0.0,
        0.0,
        0.0,
        -10.0,
        -10.0,
        0.0,
        0.0,
        0.0,
        -10.0,
        -10.0,
        -10.0,
        8.0,
        0.0,
        -10.0,
        -10.0,
        -10.0,
        -10.0,
        6.0,
        0.6666666865348816
      ],
      [
        0.10000000149011612,
        0.0,
        -10.0,
        -10.0,
        -10.0,
        -10.0,
        -10.0,
        -10.0,
        -10.0,
        0.0,
        0.0,
        0.0,
        -10.0,
        -10.0,
        0.0,
        0.0,
        0.0,
        -10.0,
        -10.0,
        -10.0,
        8.0,
        0.0,
        -10.0,
        -10.0,
        -10.0,
        -10.0,
        6.0,
        0.6666666865348816
      ],
      [
        0.10000000149011612,
        0.0,
        -10.0,
        -10.0,
        -10.0,
        -10.0,
        -10.0,
        -10.0,
        -10.0,
        0.0,
        0.0,
        0.0,
        -10.0,
        -10.0,
        0.0,
        0.0,
        0.0,
        -10.0,
        -10.0,
        -10.0,
        8.0,
        0.0,
        -10.0,
        -10.0,
        -10.0,
        -10.0,
        6.0,
        0.6666666865348816
      ],
      [
        0.10000000149011612,
        0.0,
        -10.0,
        -10.0,
        -10.0,
        -10.0,
        -10.0,
        -10.0,
        -10.0,
        0.0,
        0.0,
        0.0,
        -10.0,
        -10.0,
        0.0,
        0.0,
        0.0,
        -10.0,
        -10.0,
        -10.0,
        8.0,
        0.0,
        -10.0,
        -10.0,
        -10.0,
        -10.0,
        6.0,
        0.6666666865348816
      ],
      [
        0.10000000149011612,
        0.0,
        -10.0,
        -10.0,
        -10.0,
        -10.0,
        -10.0,
        -10.0,
        -10.0,
        0.0,
        0.0,
        0.0,
        -10.0,
        -10.0,
        0.0,
        0.0,
        0.0,
        -10.0,
        -10.0,
        -10.0,
        8.0,
        0.0,
        -10.0,
        -10.0,
        -10.0,
        -10.0,
        6.0,
        0.6666666865348816
      ],
      [
        0.10000000149011612,
        0.0,
        -10.0,
        -10.0,
        -10.0,
        -10.0,
        -10.0,
        -10.0,
        -10.0,
        0.0,
        0.0,
        0.0,
        -10.0,
        -10.0,
        0.0,
        0.0,
        0.0,
        -10.0,
        -10.0,
        -10.0,
        8.0,
        0.0,
        -10.0,
        -10.0,
        -10.0,
        -10.0,
        6.0,
        0.6666666865348816
      ],
      [
        0.10000000149011612,
        0.0,
        -10.0,
        -10.0,
        -10.0,
        -10.0,
        -10.0,
        -10.0,
        -10.0,
        0.0,
        0.0,
        0.0,
        -10.0,
        -10.0,
        0.0,
        0.0,
        0.0,
        -10.0,
        -10.0,
        -10.0,
        8.0,
        0.0,
        -10.0,
        -10.0,
        -10.0,
        -10.0,
        6.0,
        0.6666666865348816
      ],
      [
        0.10000000149011612,
        0.0,
        -10.0,
        -10.0,
        -10.0,
        -10.0,
        -10.0,
        -10.0,
        -10.0,
        0.0,
        0.0,
        0.0,
        -10.0,
        -10.0,
        0.0,
        0.0,
        0.0,
        -10.0,
        -10.0,
        -10.0,
        8.0,
        0.0,
        -10.0,
        -10.0,
        -10.0,
        -10.0,
        6.0,
        0.6666666865348816
      ],
      [
        0.10000000149011612,
        0.0,
        -10.0,
        -10.0,
        -10.0,
        -10.0,
        -10.0,
        -10.0,
        -10.0,
        0.0,
        0.0,
        0.0,
        -10.0,
        -10.0,
        0.0,
        0.0,
        0.0,
        -10.0,
        -10.0,
        -10.0,
        8.0,
        0.0,
        -10.0,
        -10.0,
        -10.0,
        -10.0,
        6.0,
        0.6666666865348816
      ],
      [
        0.10000000149011612,
        0.0,
        -10.0,
        -10.0,
        -10.0,
        -10.0,
        -10.0,
        -10.0,
        -10.0,
        0.0,
        0.0,
        0.0,
        -10.0,
        -10.0,
        0.0,
        0.0,
        0.0,
        -10.0,
        -10.0,
        -10.0,
        8.0,
        0.0,
        -10.0,
        -10.0,
        -10.0,
        -10.0,
        6.0,
        0.6666666865348816
      ],
      [
        0.10000000149011612,
        0.0,
        -10.0,
        -10.0,
        -10.0,
        -10.0,
        -10.0,
        -10.0,
        -10.0,
        0.0,
        0.0,
        0.0,
        -10.0,
        -10.0,
        0.0,
        0.0,
        0.0,
        -10.0,
        -10.0,
        -10.0,
        8.0,
        0.0,
        -10.0,
        -10.0,
        -10.0,
        -10.0,
        6.0,
        0.6666666865348816
      ],
      [
        0.10000000149011612,
        0.0,
        -10.0,
        -10.0,
        -10.0,
        -10.0,
        -10.0,
        -10.0,
        -10.0,
        0.0,
        0.0,
        0.0,
        -10.0,
        -10.0,
        0.0,
        0.0,
        0.0,
        -10.0,
        -10.0,
        -10.0,
        8.0,
        0.0,
        -10.0,
        -10.0,
        -10.0,
        -10.0,
        6.0,
        0.6666666865348816
      ],
      [
        0.10000000149011612,
        0.0,
        -10.0,
        -10.0,
        -10.0,
        -10.0,
        -10.0,
        -10.0,
        -10.0,
        0.0,
        0.0,
        0.0,
        -10.0,
        -10.0,
        0.0,
        0.0,
        0.0,
        -10.0,
        -10.0,
        -10.0,
        8.0,
        0.0,
        -10.0,
        -10.0,
        -10.0,
        -10.0,
        6.0,
        0.6666666865348816
      ],
      [
        0.10000000149011612,
        0.0,
        -10.0,
        -10.0,
        -10.0,
        -10.0,
        -10.0,
        -10.0,
        -10.0,
        0.0,
        0.0,
        0.0,
        -10.0,
        -10.0,
        0.0,
        0.0,
        0.0,
        -10.0,
        -10.0,
        -10.0,
        8.0,
        0.0,
        -10.0,
        -10.0,
        -10.0,
        -10.0,
        6.0,
        0.6666666865348816
      ],
      [
        0.10000000149011612,
        0.0,
        -10.0,
        -10.0,
        -10.0,
        -10.0,
        -10.0,
        -10.0,
        -10.0,
        0.0,
        0.0,
        0.0,
        -10.0,
        -10.0,
        0.0,
        0.0,
        0.0,
        -10.0,
        -10.0,
        -10.0,
        8.0,
        0.0,
        -10.0,
        -10.0,
        -10.0,
        -10.0,
        6.0,
        0.6666666865348816
      ],
      [
        0.10000000149011612,
        0.0,
        -10.0,
        -10.0,
        -10.0,
        -10.0,
        -10.0,
        -10.0,
        -10.0,
        0.0,
        0.0,
        0.0,
        -10.0,
        -10.0,
        0.0,
        0.0,
        0.0,
        -10.0,
        -10.0,
        -10.0,
        8.0,
        0.0,
        -10.0,
        -10.0,
        -10.0,
        -10.0,
        6.0,
        0.6666666865348816
      ]
    ],
    "actions": [
      1,
      2,
      2,
      2,
      2,
      2,
      2,
      2,
      2,
      2,
      2,
      2,
      2,
      2,
      2,
      2,
      2,
      2,
      1,
      2,
      0
    ],
    "mo_rewards": [
      [
        0.30000001192092896,
        -1.0
      ],
      [
        0.0,
        -1.0
      ],
      [
        0.0,
        -1.0
      ],
      [
        0.0,
        -1.0
      ],
      [
        0.0,
        -1.0
      ],
      [
        0.0,
        -1.0
      ],
      [
        0.0,
        -1.0
      ],
      [
        0.0,
        -1.0
      ],
      [
        0.0,
        -1.0
      ],
      [
        0.0,
        -1.0
      ],
      [
        0.0,
        -1.0
      ],
      [
        0.0,
        -1.0
      ],
      [
        0.0,
        -1.0
      ],
      [
        0.0,
        -1.0
      ],
      [
        0.0,
        -1.0
      ],
      [
        0.0,
        -1.0
      ],
      [
        0.0,
        -1.0
      ],
      [
        0.0,
        -1.0
      ],
      [
        0.0,
        -1.0
      ],
      [
        0.0,
        -1.0
      ],
      [
        0.0,
        -1.0
      ]
    ],
    "preference_weights_truth": [
      [
        1.0,
        0.0
      ],
      [
        0.9900498390197754,
        0.009950166568160057
      ],
      [
        0.9801986813545227,
        0.019801326096057892
      ],
      [
        0.9704455137252808,
        0.029554465785622597
      ],
      [
        0.9607894420623779,
        0.03921056166291237
      ],
      [
        0.951229453086853,
        0.04877057671546936
      ],
      [
        0.9417645335197449,
        0.05823546648025513
      ],
      [
        0.9323938488960266,
        0.06760618090629578
      ],
      [
        0.9231163263320923,
        0.07688365131616592
      ],
      [
        0.9139311909675598,
        0.08606881648302078
      ],
      [
        0.904837429523468,
        0.09516258537769318
      ],
      [
        0.8958341479301453,
        0.10416586697101593
      ],
      [
        0.8869204521179199,
        0.11307956278324127
      ],
      [
        0.8780954480171204,
        0.12190456688404083
      ],
      [
        0.869358241558075,
        0.13064175844192505
      ],
      [
        0.8607079982757568,
        0.13929201662540436
      ],
      [
        0.8521437644958496,
        0.147856205701828
      ],
      [
        0.843664824962616,
        0.15633518993854523
      ],
      [
        0.8352702260017395,
        0.1647297888994217
      ],
      [
        0.8269591331481934,
        0.17304086685180664
      ],
      [
        0.8187307715415955,
        0.18126924335956573
      ]
    ],
    "preference_weights_predicted": [
      [
        0.5,
        0.5
      ],
      [
        0.4327104483573239,
        0.5672895516426761
      ],
      [
        0.9024052028926469,
        0.09759479710735308
      ],
      [
        1.0,
        0.0
      ],
      [
        1.0,
        0.0
      ],
      [
        0.9938375223197885,
        0.00616247768021147
      ],
      [
        0.9544859307040586,
        0.04551406929594141
      ],
      [
        0.9014855518741731,
        0.09851444812582683
      ],
      [
        0.8439016178097263,
        0.15609838219027367
      ],
      [
        0.7857280929749906,
        0.21427190702500945
      ],
      [
        0.728657732354261,
        0.271342267645739
      ],
      [
        0.6733701088405608,
        0.3266298911594392
      ],
      [
        0.6201057236456958,
        0.37989427635430423
      ],
      [
        0.5689171178456573,
        0.4310828821543427
      ],
      [
        0.5197777456139665,
        0.4802222543860335
      ],
      [
        0.4726289546463832,
        0.5273710453536169
      ],
      [
        0.4274001795922582,
        0.5725998204077418
      ],
      [
        0.38401757158308847,
        0.6159824284169115
      ],
      [
        0.34240764274880464,
        0.6575923572511954
      ],
      [
        0.0,
        1.0
      ],
      [
        0.10832097160487672,
        0.8916790283951233
      ]
    ]
  },
  {
    "observations": [
      [
        0.0,
        0.0,
        -10.0,
        -10.0,
        -10.0,
        -10.0,
        -10.0,
        -10.0,
        -10.0,
        -10.0,
        -10.0,
        -10.0,
        -10.0,
        -10.0,
        0.0,
        0.0,
        0.0,
        -10.0,
        -10.0,
        0.30000001192092896,
        0.0,
        0.0,
        -10.0,
        -10.0,
        -10.0,
        5.0,
        0.0,
        1.0
      ]
    ],
    "actions": [
      2
    ],
    "mo_rewards": [
      [
        0.0,
        -1.0
      ]
    ],
    "preference_weights_truth": [
      [
        1.0,
        0.0
      ]
    ],
    "preference_weights_predicted": [
      [
        0.5,
        0.5
      ]
    ]
  },
  {
    "observations": [
      [
        0.0,
        0.0,
        -10.0,
        -10.0,
        -10.0,
        -10.0,
        -10.0,
        -10.0,
        -10.0,
        -10.0,
        -10.0,
        -10.0,
        -10.0,
        -10.0,
        0.0,
        0.0,
        0.0,
        -10.0,
        -10.0,
        0.30000001192092896,
        0.0,
        0.0,
        -10.0,
        -10.0,
        -10.0,
        3.0,
        0.0,
        1.0
      ]
    ],
    "actions": [
      2
    ],
    "mo_rewards": [
      [
        0.0,
        -1.0
      ]
    ],
    "preference_weights_truth": [
      [
        1.0,
        0.0
      ]
    ],
    "preference_weights_predicted": [
      [
        0.5,
        0.5
      ]
    ]
  },
  {
    "observations": [
      [
        0.0,
        0.0,
        -10.0,
        -10.0,
        -10.0,
        -10.0,
        -10.0,
        -10.0,
        -10.0,
        -10.0,
        -10.0,
        -10.0,
        -10.0,
        -10.0,
        0.0,
        0.0,
        0.0,
        -10.0,
        -10.0,
        0.5,
        0.0,
        0.0,
        -10.0,
        -10.0,
        -10.0,
        8.0,
        0.0,
        1.0
      ],
      [
        0.10000000149011612,
        0.0,
        -10.0,
        -10.0,
        -10.0,
        -10.0,
        -10.0,
        -10.0,
        -10.0,
        0.0,
        0.0,
        0.0,
        -10.0,
        -10.0,
        0.0,
        0.0,
        0.0,
        -10.0,
        -10.0,
        -10.0,
        8.0,
        0.0,
        -10.0,
        -10.0,
        -10.0,
        -10.0,
        12.0,
        0.6666666865348816
      ],
      [
        0.10000000149011612,
        0.0,
        -10.0,
        -10.0,
        -10.0,
        -10.0,
        -10.0,
        -10.0,
        -10.0,
        0.0,
        0.0,
        0.0,
        -10.0,
        -10.0,
        0.0,
        0.0,
        0.0,
        -10.0,
        -10.0,
        -10.0,
        8.0,
        0.0,
        -10.0,
        -10.0,
        -10.0,
        -10.0,
        12.0,
        0.6666666865348816
      ],
      [
        0.10000000149011612,
        0.0,
        -10.0,
        -10.0,
        -10.0,
        -10.0,
        -10.0,
        -10.0,
        -10.0,
        0.0,
        0.0,
        0.0,
        -10.0,
        -10.0,
        0.0,
        0.0,
        0.0,
        -10.0,
        -10.0,
        -10.0,
        8.0,
        0.0,
        -10.0,
        -10.0,
        -10.0,
        -10.0,
        12.0,
        0.6666666865348816
      ],
      [
        0.10000000149011612,
        0.0,
        -10.0,
        -10.0,
        -10.0,
        -10.0,
        -10.0,
        -10.0,
        -10.0,
        0.0,
        0.0,
        0.0,
        -10.0,
        -10.0,
        0.0,
        0.0,
        0.0,
        -10.0,
        -10.0,
        -10.0,
        8.0,
        0.0,
        -10.0,
        -10.0,
        -10.0,
        -10.0,
        12.0,
        0.6666666865348816
      ],
      [
        0.10000000149011612,
        0.0,
        -10.0,
        -10.0,
        -10.0,
        -10.0,
        -10.0,
        -10.0,
        -10.0,
        0.0,
        0.0,
        0.0,
        -10.0,
        -10.0,
        0.0,
        0.0,
        0.0,
        -10.0,
        -10.0,
        -10.0,
        8.0,
        0.0,
        -10.0,
        -10.0,
        -10.0,
        -10.0,
        12.0,
        0.6666666865348816
      ],
      [
        0.10000000149011612,
        0.10000000149011612,
        -10.0,
        -10.0,
        -10.0,
        -10.0,
        -10.0,
        -10.0,
        0.0,
        0.0,
        0.0,
        0.0,
        -10.0,
        0.0,
        0.0,
        0.0,
        0.0,
        -10.0,
        -10.0,
        8.0,
        0.0,
        0.0,
        -10.0,
        -10.0,
        -10.0,
        12.0,
        0.0,
        0.6666666865348816
      ],
      [
        0.10000000149011612,
        0.0,
        -10.0,
        -10.0,
        -10.0,
        -10.0,
        -10.0,
        -10.0,
        -10.0,
        0.0,
        0.0,
        0.0,
        -10.0,
        -10.0,
        0.0,
        0.0,
        0.0,
        -10.0,
        -10.0,
        -10.0,
        8.0,
        0.0,
        -10.0,
        -10.0,
        -10.0,
        -10.0,
        12.0,
        0.6666666865348816
      ],
      [
        0.10000000149011612,
        0.10000000149011612,
        -10.0,
        -10.0,
        -10.0,
        -10.0,
        -10.0,
        -10.0,
        0.0,
        0.0,
        0.0,
        0.0,
        -10.0,
        0.0,
        0.0,
        0.0,
        0.0,
        -10.0,
        -10.0,
        8.0,
        0.0,
        0.0,
        -10.0,
        -10.0,
        -10.0,
        12.0,
        0.0,
        0.6666666865348816
      ],
      [
        0.10000000149011612,
        0.0,
        -10.0,
        -10.0,
        -10.0,
        -10.0,
        -10.0,
        -10.0,
        -10.0,
        0.0,
        0.0,
        0.0,
        -10.0,
        -10.0,
        0.0,
        0.0,
        0.0,
        -10.0,
        -10.0,
        -10.0,
        8.0,
        0.0,
        -10.0,
        -10.0,
        -10.0,
        -10.0,
        12.0,
        0.6666666865348816
      ],
      [
        0.10000000149011612,
        0.0,
        -10.0,
        -10.0,
        -10.0,
        -10.0,
        -10.0,
        -10.0,
        -10.0,
        0.0,
        0.0,
        0.0,
        -10.0,
        -10.0,
        0.0,
        0.0,
        0.0,
        -10.0,
        -10.0,
        -10.0,
        8.0,
        0.0,
        -10.0,
        -10.0,
        -10.0,
        -10.0,
        12.0,
        0.6666666865348816
      ],
      [
        0.10000000149011612,
        0.10000000149011612,
        -10.0,
        -10.0,
        -10.0,
        -10.0,
        -10.0,
        -10.0,
        0.0,
        0.0,
        0.0,
        0.0,
        -10.0,
        0.0,
        0.0,
        0.0,
        0.0,
        -10.0,
        -10.0,
        8.0,
        0.0,
        0.0,
        -10.0,
        -10.0,
        -10.0,
        12.0,
        0.0,
        0.6666666865348816
      ],
      [
        0.10000000149011612,
        0.0,
        -10.0,
        -10.0,
        -10.0,
        -10.0,
        -10.0,
        -10.0,
        -10.0,
        0.0,
        0.0,
        0.0,
        -10.0,
        -10.0,
        0.0,
        0.0,
        0.0,
        -10.0,
        -10.0,
        -10.0,
        8.0,
        0.0,
        -10.0,
        -10.0,
        -10.0,
        -10.0,
        12.0,
        0.6666666865348816
      ],
      [
        0.10000000149011612,
        0.0,
        -10.0,
        -10.0,
        -10.0,
        -10.0,
        -10.0,
        -10.0,
        -10.0,
        0.0,
        0.0,
        0.0,
        -10.0,
        -10.0,
        0.0,
        0.0,
        0.0,
        -10.0,
        -10.0,
        -10.0,
        8.0,
        0.0,
        -10.0,
        -10.0,
        -10.0,
        -10.0,
        12.0,
        0.6666666865348816
      ],
      [
        0.10000000149011612,
        0.0,
        -10.0,
        -10.0,
        -10.0,
        -10.0,
        -10.0,
        -10.0,
        -10.0,
        0.0,
        0.0,
        0.0,
        -10.0,
        -10.0,
        0.0,
        0.0,
        0.0,
        -10.0,
        -10.0,
        -10.0,
        8.0,
        0.0,
        -10.0,
        -10.0,
        -10.0,
        -10.0,
        12.0,
        0.6666666865348816
      ],
      [
        0.10000000149011612,
        0.0,
        -10.0,
        -10.0,
        -10.0,
        -10.0,
        -10.0,
        -10.0,
        -10.0,
        0.0,
        0.0,
        0.0,
        -10.0,
        -10.0,
        0.0,
        0.0,
        0.0,
        -10.0,
        -10.0,
        -10.0,
        8.0,
        0.0,
        -10.0,
        -10.0,
        -10.0,
        -10.0,
        12.0,
        0.6666666865348816
      ],
      [
        0.10000000149011612,
        0.0,
        -10.0,
        -10.0,
        -10.0,
        -10.0,
        -10.0,
        -10.0,
        -10.0,
        0.0,
        0.0,
        0.0,
        -10.0,
        -10.0,
        0.0,
        0.0,
        0.0,
        -10.0,
        -10.0,
        -10.0,
        8.0,
        0.0,
        -10.0,
        -10.0,
        -10.0,
        -10.0,
        12.0,
        0.6666666865348816
      ],
      [
        0.10000000149011612,
        0.10000000149011612,
        -10.0,
        -10.0,
        -10.0,
        -10.0,
        -10.0,
        -10.0,
        0.0,
        0.0,
        0.0,
        0.0,
        -10.0,
        0.0,
        0.0,
        0.0,
        0.0,
        -10.0,
        -10.0,
        8.0,
        0.0,
        0.0,
        -10.0,
        -10.0,
        -10.0,
        12.0,
        0.0,
        0.6666666865348816
      ],
      [
        0.10000000149011612,
        0.0,
        -10.0,
        -10.0,
        -10.0,
        -10.0,
        -10.0,
        -10.0,
        -10.0,
        0.0,
        0.0,
        0.0,
        -10.0,
        -10.0,
        0.0,
        0.0,
        0.0,
        -10.0,
        -10.0,
        -10.0,
        8.0,
        0.0,
        -10.0,
        -10.0,
        -10.0,
        -10.0,
        12.0,
        0.6666666865348816
      ],
      [
        0.10000000149011612,
        0.0,
        -10.0,
        -10.0,
        -10.0,
        -10.0,
        -10.0,
        -10.0,
        -10.0,
        0.0,
        0.0,
        0.0,
        -10.0,
        -10.0,
        0.0,
        0.0,
        0.0,
        -10.0,
        -10.0,
        -10.0,
        8.0,
        0.0,
        -10.0,
        -10.0,
        -10.0,
        -10.0,
        12.0,
        0.6666666865348816
      ],
      [
        0.10000000149011612,
        0.0,
        -10.0,
        -10.0,
        -10.0,
        -10.0,
        -10.0,
        -10.0,
        -10.0,
        0.0,
        0.0,
        0.0,
        -10.0,
        -10.0,
        0.0,
        0.0,
        0.0,
        -10.0,
        -10.0,
        -10.0,
        8.0,
        0.0,
        -10.0,
        -10.0,
        -10.0,
        -10.0,
        12.0,
        0.6666666865348816
      ],
      [
        0.10000000149011612,
        0.0,
        -10.0,
        -10.0,
        -10.0,
        -10.0,
        -10.0,
        -10.0,
        -10.0,
        0.0,
        0.0,
        0.0,
        -10.0,
        -10.0,
        0.0,
        0.0,
        0.0,
        -10.0,
        -10.0,
        -10.0,
        8.0,
        0.0,
        -10.0,
        -10.0,
        -10.0,
        -10.0,
        12.0,
        0.6666666865348816
      ],
      [
        0.10000000149011612,
        0.10000000149011612,
        -10.0,
        -10.0,
        -10.0,
        -10.0,
        -10.0,
        -10.0,
        0.0,
        0.0,
        0.0,
        0.0,
        -10.0,
        0.0,
        0.0,
        0.0,
        0.0,
        -10.0,
        -10.0,
        8.0,
        0.0,
        0.0,
        -10.0,
        -10.0,
        -10.0,
        12.0,
        0.0,
        0.6666666865348816
      ],
      [
        0.0,
        0.10000000149011612,
        -10.0,
        -10.0,
        -10.0,
        -10.0,
        -10.0,
        -10.0,
        -10.0,
        -10.0,
        -10.0,
        -10.0,
        -10.0,
        0.0,
        0.0,
        0.0,
        0.0,
        -10.0,
        0.0,
        0.0,
        0.0,
        0.0,
        -10.0,
        -10.0,
        8.0,
        0.0,
        0.0,
        0.6666666865348816
      ],
      [
        0.0,
        0.10000000149011612,
        -10.0,
        -10.0,
        -10.0,
        -10.0,
        -10.0,
        -10.0,
        -10.0,
        -10.0,
        -10.0,
        -10.0,
        -10.0,
        0.0,
        0.0,
        0.0,
        0.0,
        -10.0,
        0.0,
        0.0,
        0.0,
        0.0,
        -10.0,
        -10.0,
        8.0,
        0.0,
        0.0,
        0.6666666865348816
      ],
      [
        0.0,
        0.10000000149011612,
        -10.0,
        -10.0,
        -10.0,
        -10.0,
        -10.0,
        -10.0,
        -10.0,
        -10.0,
        -10.0,
        -10.0,
        -10.0,
        0.0,
        0.0,
        0.0,
        0.0,
        -10.0,
        0.0,
        0.0,
        0.0,
        0.0,
        -10.0,
        -10.0,
        8.0,
        0.0,
        0.0,
        0.6666666865348816
      ],
      [
        0.0,
        0.10000000149011612,
        -10.0,
        -10.0,
        -10.0,
        -10.0,
        -10.0,
        -10.0,
        -10.0,
        -10.0,
        -10.0,
        -10.0,
        -10.0,
        0.0,
        0.0,
        0.0,
        0.0,
        -10.0,
        0.0,
        0.0,
        0.0,
        0.0,
        -10.0,
        -10.0,
        8.0,
        0.0,
        0.0,
        0.6666666865348816
      ],
      [
        0.0,
        0.20000000298023224,
        -10.0,
        -10.0,
        -10.0,
        -10.0,
        -10.0,
        -10.0,
        -10.0,
        -10.0,
        -10.0,
        -10.0,
        0.0,
        0.0,
        0.0,
        0.0,
        0.0,
        0.0,
        0.0,
        0.0,
        0.0,
        0.0,
        -10.0,
        8.0,
        0.0,
        0.0,
        0.0,
        0.6666666865348816
      ],
      [
        0.0,
        0.20000000298023224,
        -10.0,
        -10.0,
        -10.0,
        -10.0,
        -10.0,
        -10.0,
        -10.0,
        -10.0,
        -10.0,
        -10.0,
        0.0,
        0.0,
        0.0,
        0.0,
        0.0,
        0.0,
        0.0,
        0.0,
        0.0,
        0.0,
        -10.0,
        8.0,
        0.0,
        0.0,
        0.0,
        0.6666666865348816
      ],
      [
        0.0,
        0.30000001192092896,
        -10.0,
        -10.0,
        -10.0,
        -10.0,
        -10.0,
        -10.0,
        -10.0,
        -10.0,
        -10.0,
        -10.0,
        0.0,
        0.0,
        0.0,
        0.0,
        0.0,
        0.0,
        0.0,
        0.0,
        0.0,
        0.0,
        8.0,
        0.0,
        0.0,
        0.0,
        0.0,
        0.6666666865348816
      ],
      [
        0.0,
        0.30000001192092896,
        -10.0,
        -10.0,
        -10.0,
        -10.0,
        -10.0,
        -10.0,
        -10.0,
        -10.0,
        -10.0,
        -10.0,
        0.0,
        0.0,
        0.0,
        0.0,
        0.0,
        0.0,
        0.0,
        0.0,
        0.0,
        0.0,
        8.0,
        0.0,
        0.0,
        0.0,
        0.0,
        0.6666666865348816
      ],
      [
        0.0,
        0.20000000298023224,
        -10.0,
        -10.0,
        -10.0,
        -10.0,
        -10.0,
        -10.0,
        -10.0,
        -10.0,
        -10.0,
        -10.0,
        0.0,
        0.0,
        0.0,
        0.0,
        0.0,
        0.0,
        0.0,
        0.0,
        0.0,
        0.0,
        -10.0,
        8.0,
        0.0,
        0.0,
        0.0,
        0.6666666865348816
      ],
      [
        0.0,
        0.10000000149011612,
        -10.0,
        -10.0,
        -10.0,
        -10.0,
        -10.0,
        -10.0,
        -10.0,
        -10.0,
        -10.0,
        -10.0,
        -10.0,
        0.0,
        0.0,
        0.0,
        0.0,
        -10.0,
        0.0,
        0.0,
        0.0,
        0.0,
        -10.0,
        -10.0,
        8.0,
        0.0,
        0.0,
        0.6666666865348816
      ],
      [
        0.0,
        0.10000000149011612,
        -10.0,
        -10.0,
        -10.0,
        -10.0,
        -10.0,
        -10.0,
        -10.0,
        -10.0,
        -10.0,
        -10.0,
        -10.0,
        0.0,
        0.0,
        0.0,
        0.0,
        -10.0,
        0.0,
        0.0,
        0.0,
        0.0,
        -10.0,
        -10.0,
        8.0,
        0.0,
        0.0,
        0.6666666865348816
      ],
      [
        0.0,
        0.10000000149011612,
        -10.0,
        -10.0,
        -10.0,
        -10.0,
        -10.0,
        -10.0,
        -10.0,
        -10.0,
        -10.0,
        -10.0,
        -10.0,
        0.0,
        0.0,
        0.0,
        0.0,
        -10.0,
        0.0,
        0.0,
        0.0,
        0.0,
        -10.0,
        -10.0,
        8.0,
        0.0,
        0.0,
        0.6666666865348816
      ],
      [
        0.0,
        0.10000000149011612,
        -10.0,
        -10.0,
        -10.0,
        -10.0,
        -10.0,
        -10.0,
        -10.0,
        -10.0,
        -10.0,
        -10.0,
        -10.0,
        0.0,
        0.0,
        0.0,
        0.0,
        -10.0,
        0.0,
        0.0,
        0.0,
        0.0,
        -10.0,
        -10.0,
        8.0,
        0.0,
        0.0,
        0.6666666865348816
      ],
      [
        0.0,
        0.10000000149011612,
        -10.0,
        -10.0,
        -10.0,
        -10.0,
        -10.0,
        -10.0,
        -10.0,
        -10.0,
        -10.0,
        -10.0,
        -10.0,
        0.0,
        0.0,
        0.0,
        0.0,
        -10.0,
        0.0,
        0.0,
        0.0,
        0.0,
        -10.0,
        -10.0,
        8.0,
        0.0,
        0.0,
        0.6666666865348816
      ]
    ],
    "actions": [
      1,
      2,
      2,
      2,
      2,
      3,
      2,
      3,
      2,
      2,
      3,
      2,
      2,
      2,
      2,
      2,
      3,
      2,
      2,
      2,
      1,
      3,
      0,
      0,
      0,
      0,
      3,
      0,
      3,
      0,
      2,
      2,
      0,
      0,
      0,
      0,
      2
    ],
    "mo_rewards": [
      [
        0.5,
        -1.0
      ],
      [
        0.0,
        -1.0
      ],
      [
        0.0,
        -1.0
      ],
      [
        0.0,
        -1.0
      ],
      [
        0.0,
        -1.0
      ],
      [
        0.0,
        -1.0
      ],
      [
        0.0,
        -1.0
      ],
      [
        0.0,
        -1.0
      ],
      [
        0.0,
        -1.0
      ],
      [
        0.0,
        -1.0
      ],
      [
        0.0,
        -1.0
      ],
      [
        0.0,
        -1.0
      ],
      [
        0.0,
        -1.0
      ],
      [
        0.0,
        -1.0
      ],
      [
        0.0,
        -1.0
      ],
      [
        0.0,
        -1.0
      ],
      [
        0.0,
        -1.0
      ],
      [
        0.0,
        -1.0
      ],
      [
        0.0,
        -1.0
      ],
      [
        0.0,
        -1.0
      ],
      [
        0.0,
        -1.0
      ],
      [
        0.0,
        -1.0
      ],
      [
        0.0,
        -1.0
      ],
      [
        0.0,
        -1.0
      ],
      [
        0.0,
        -1.0
      ],
      [
        0.0,
        -1.0
      ],
      [
        0.0,
        -1.0
      ],
      [
        0.0,
        -1.0
      ],
      [
        0.0,
        -1.0
      ],
      [
        0.0,
        -1.0
      ],
      [
        0.0,
        -1.0
      ],
      [
        0.0,
        -1.0
      ],
      [
        0.0,
        -1.0
      ],
      [
        0.0,
        -1.0
      ],
      [
        0.0,
        -1.0
      ],
      [
        0.0,
        -1.0
      ],
      [
        0.0,
        -1.0
      ]
    ],
    "preference_weights_truth": [
      [
        1.0,
        0.0
      ],
      [
        0.9900498390197754,
        0.009950166568160057
      ],
      [
        0.9801986813545227,
        0.019801326096057892
      ],
      [
        0.9704455137252808,
        0.029554465785622597
      ],
      [
        0.9607894420623779,
        0.03921056166291237
      ],
      [
        0.951229453086853,
        0.04877057671546936
      ],
      [
        0.9417645335197449,
        0.05823546648025513
      ],
      [
        0.9323938488960266,
        0.06760618090629578
      ],
      [
        0.9231163263320923,
        0.07688365131616592
      ],
      [
        0.9139311909675598,
        0.08606881648302078
      ],
      [
        0.904837429523468,
        0.09516258537769318
      ],
      [
        0.8958341479301453,
        0.10416586697101593
      ],
      [
        0.8869204521179199,
        0.11307956278324127
      ],
      [
        0.8780954480171204,
        0.12190456688404083
      ],
      [
        0.869358241558075,
        0.13064175844192505
      ],
      [
        0.8607079982757568,
        0.13929201662540436
      ],
      [
        0.8521437644958496,
        0.147856205701828
      ],
      [
        0.843664824962616,
        0.15633518993854523
      ],
      [
        0.8352702260017395,
        0.1647297888994217
      ],
      [
        0.8269591331481934,
        0.17304086685180664
      ],
      [
        0.8187307715415955,
        0.18126924335956573
      ],
      [
        0.8105842471122742,
        0.18941575288772583
      ],
      [
        0.8025187849998474,
        0.1974812000989914
      ],
      [
        0.7945336103439331,
        0.2054664045572281
      ],
      [
        0.7866278886795044,
        0.213372141122818
      ],
      [
        0.7788007855415344,
        0.22119921445846558
      ],
      [
        0.7710515856742859,
        0.2289484143257141
      ],
      [
        0.7633795142173767,
        0.23662050068378448
      ],
      [
        0.75578373670578,
        0.24421626329421997
      ],
      [
        0.7482635378837585,
        0.25173643231391907
      ],
      [
        0.740818202495575,
        0.25918176770210266
      ],
      [
        0.7334469556808472,
        0.26655304431915283
      ],
      [
        0.7261490225791931,
        0.2738509774208069
      ],
      [
        0.7189237475395203,
        0.28107625246047974
      ],
      [
        0.7117702960968018,
        0.28822967410087585
      ],
      [
        0.7046880722045898,
        0.29531189799308777
      ],
      [
        0.6976763010025024,
        0.30232366919517517
      ]
    ],
    "preference_weights_predicted": [
      [
        0.5,
        0.5
      ],
      [
        0.4334169573276791,
        0.5665830426723208
      ],
      [
        0.8599863078564379,
        0.14001369214356207
      ],
      [
        1.0,
        0.0
      ],
      [
        1.0,
        0.0
      ],
      [
        1.0,
        0.0
      ],
      [
        1.0,
        0.0
      ],
      [
        0.6274115667943758,
        0.3725884332056241
      ],
      [
        0.8406150371496456,
        0.15938496285035442
      ],
      [
        0.6794383705002105,
        0.32056162949978956
      ],
      [
        0.7852817232120406,
        0.21471827678795946
      ],
      [
        0.9387034494534721,
        0.06129655054652791
      ],
      [
        0.7366412178263294,
        0.2633587821736706
      ],
      [
        0.8033432199446288,
        0.19665678005537124
      ],
      [
        0.8120793021133164,
        0.18792069788668359
      ],
      [
        0.7912844587025877,
        0.20871554129741232
      ],
      [
        0.7562783401659403,
        0.24372165983405972
      ],
      [
        0.9364283612219587,
        0.06357163877804133
      ],
      [
        0.6944459698878991,
        0.30555403011210086
      ],
      [
        0.7393681548143619,
        0.26063184518563803
      ],
      [
        0.738256244824666,
        0.261743755175334
      ],
      [
        0.13296137997311042,
        0.8670386200268896
      ],
      [
        0.3614935117134368,
        0.6385064882865632
      ],
      [
        0.23684462323744077,
        0.7631553767625593
      ],
      [
        0.20463381419130972,
        0.7953661858086903
      ],
      [
        0.18864984620784217,
        0.8113501537921578
      ],
      [
        0.17949409978561393,
        0.8205059002143862
      ],
      [
        0.10555148789974306,
        0.894448512100257
      ],
      [
        0.07974028494893892,
        0.9202597150510611
      ],
      [
        0.014704284566705639,
        0.9852957154332944
      ],
      [
        0.023134490318023705,
        0.9768655096819763
      ],
      [
        0.07408214700094934,
        0.9259178529990507
      ],
      [
        0.08350579451586086,
        0.9164942054841392
      ],
      [
        0.12638222948719618,
        0.8736177705128039
      ],
      [
        0.14284950944886707,
        0.8571504905511329
      ],
      [
        0.15146657879568498,
        0.8485334212043151
      ],
      [
        0.1565018399300442,
        0.8434981600699558
      ]
    ]
  },
  {
    "observations": [
      [
        0.0,
        0.0,
        -10.0,
        -10.0,
        -10.0,
        -10.0,
        -10.0,
        -10.0,
        -10.0,
        -10.0,
        -10.0,
        -10.0,
        -10.0,
        -10.0,
        0.0,
        0.0,
        0.0,
        -10.0,
        -10.0,
        0.30000001192092896,
        0.0,
        0.0,
        -10.0,
        -10.0,
        -10.0,
        3.0,
        0.0,
        1.0
      ],
      [
        0.10000000149011612,
        0.0,
        -10.0,
        -10.0,
        -10.0,
        -10.0,
        -10.0,
        -10.0,
        -10.0,
        0.0,
        0.0,
        0.0,
        -10.0,
        -10.0,
        0.0,
        0.0,
        0.0,
        -10.0,
        -10.0,
        -10.0,
        3.0,
        0.0,
        -10.0,
        -10.0,
        -10.0,
        -10.0,
        10.0,
        0.6666666865348816
      ],
      [
        0.10000000149011612,
        0.0,
        -10.0,
        -10.0,
        -10.0,
        -10.0,
        -10.0,
        -10.0,
        -10.0,
        0.0,
        0.0,
        0.0,
        -10.0,
        -10.0,
        0.0,
        0.0,
        0.0,
        -10.0,
        -10.0,
        -10.0,
        3.0,
        0.0,
        -10.0,
        -10.0,
        -10.0,
        -10.0,
        10.0,
        0.6666666865348816
      ],
      [
        0.10000000149011612,
        0.0,
        -10.0,
        -10.0,
        -10.0,
        -10.0,
        -10.0,
        -10.0,
        -10.0,
        0.0,
        0.0,
        0.0,
        -10.0,
        -10.0,
        0.0,
        0.0,
        0.0,
        -10.0,
        -10.0,
        -10.0,
        3.0,
        0.0,
        -10.0,
        -10.0,
        -10.0,
        -10.0,
        10.0,
        0.6666666865348816
      ],
      [
        0.10000000149011612,
        0.0,
        -10.0,
        -10.0,
        -10.0,
        -10.0,
        -10.0,
        -10.0,
        -10.0,
        0.0,
        0.0,
        0.0,
        -10.0,
        -10.0,
        0.0,
        0.0,
        0.0,
        -10.0,
        -10.0,
        -10.0,
        3.0,
        0.0,
        -10.0,
        -10.0,
        -10.0,
        -10.0,
        10.0,
        0.6666666865348816
      ],
      [
        0.10000000149011612,
        0.0,
        -10.0,
        -10.0,
        -10.0,
        -10.0,
        -10.0,
        -10.0,
        -10.0,
        0.0,
        0.0,
        0.0,
        -10.0,
        -10.0,
        0.0,
        0.0,
        0.0,
        -10.0,
        -10.0,
        -10.0,
        3.0,
        0.0,
        -10.0,
        -10.0,
        -10.0,
        -10.0,
        10.0,
        0.6666666865348816
      ],
      [
        0.10000000149011612,
        0.0,
        -10.0,
        -10.0,
        -10.0,
        -10.0,
        -10.0,
        -10.0,
        -10.0,
        0.0,
        0.0,
        0.0,
        -10.0,
        -10.0,
        0.0,
        0.0,
        0.0,
        -10.0,
        -10.0,
        -10.0,
        3.0,
        0.0,
        -10.0,
        -10.0,
        -10.0,
        -10.0,
        10.0,
        0.6666666865348816
      ],
      [
        0.10000000149011612,
        0.0,
        -10.0,
        -10.0,
        -10.0,
        -10.0,
        -10.0,
        -10.0,
        -10.0,
        0.0,
        0.0,
        0.0,
        -10.0,
        -10.0,
        0.0,
        0.0,
        0.0,
        -10.0,
        -10.0,
        -10.0,
        3.0,
        0.0,
        -10.0,
        -10.0,
        -10.0,
        -10.0,
        10.0,
        0.6666666865348816
      ],
      [
        0.10000000149011612,
        0.0,
        -10.0,
        -10.0,
        -10.0,
        -10.0,
        -10.0,
        -10.0,
        -10.0,
        0.0,
        0.0,
        0.0,
        -10.0,
        -10.0,
        0.0,
        0.0,
        0.0,
        -10.0,
        -10.0,
        -10.0,
        3.0,
        0.0,
        -10.0,
        -10.0,
        -10.0,
        -10.0,
        10.0,
        0.6666666865348816
      ],
      [
        0.10000000149011612,
        0.0,
        -10.0,
        -10.0,
        -10.0,
        -10.0,
        -10.0,
        -10.0,
        -10.0,
        0.0,
        0.0,
        0.0,
        -10.0,
        -10.0,
        0.0,
        0.0,
        0.0,
        -10.0,
        -10.0,
        -10.0,
        3.0,
        0.0,
        -10.0,
        -10.0,
        -10.0,
        -10.0,
        10.0,
        0.6666666865348816
      ],
      [
        0.10000000149011612,
        0.0,
        -10.0,
        -10.0,
        -10.0,
        -10.0,
        -10.0,
        -10.0,
        -10.0,
        0.0,
        0.0,
        0.0,
        -10.0,
        -10.0,
        0.0,
        0.0,
        0.0,
        -10.0,
        -10.0,
        -10.0,
        3.0,
        0.0,
        -10.0,
        -10.0,
        -10.0,
        -10.0,
        10.0,
        0.6666666865348816
      ],
      [
        0.10000000149011612,
        0.0,
        -10.0,
        -10.0,
        -10.0,
        -10.0,
        -10.0,
        -10.0,
        -10.0,
        0.0,
        0.0,
        0.0,
        -10.0,
        -10.0,
        0.0,
        0.0,
        0.0,
        -10.0,
        -10.0,
        -10.0,
        3.0,
        0.0,
        -10.0,
        -10.0,
        -10.0,
        -10.0,
        10.0,
        0.6666666865348816
      ],
      [
        0.10000000149011612,
        0.0,
        -10.0,
        -10.0,
        -10.0,
        -10.0,
        -10.0,
        -10.0,
        -10.0,
        0.0,
        0.0,
        0.0,
        -10.0,
        -10.0,
        0.0,
        0.0,
        0.0,
        -10.0,
        -10.0,
        -10.0,
        3.0,
        0.0,
        -10.0,
        -10.0,
        -10.0,
        -10.0,
        10.0,
        0.6666666865348816
      ],
      [
        0.10000000149011612,
        0.0,
        -10.0,
        -10.0,
        -10.0,
        -10.0,
        -10.0,
        -10.0,
        -10.0,
        0.0,
        0.0,
        0.0,
        -10.0,
        -10.0,
        0.0,
        0.0,
        0.0,
        -10.0,
        -10.0,
        -10.0,
        3.0,
        0.0,
        -10.0,
        -10.0,
        -10.0,
        -10.0,
        10.0,
        0.6666666865348816
      ],
      [
        0.10000000149011612,
        0.0,
        -10.0,
        -10.0,
        -10.0,
        -10.0,
        -10.0,
        -10.0,
        -10.0,
        0.0,
        0.0,
        0.0,
        -10.0,
        -10.0,
        0.0,
        0.0,
        0.0,
        -10.0,
        -10.0,
        -10.0,
        3.0,
        0.0,
        -10.0,
        -10.0,
        -10.0,
        -10.0,
        10.0,
        0.6666666865348816
      ],
      [
        0.10000000149011612,
        0.10000000149011612,
        -10.0,
        -10.0,
        -10.0,
        -10.0,
        -10.0,
        -10.0,
        0.0,
        0.0,
        0.0,
        0.0,
        -10.0,
        0.0,
        0.0,
        0.0,
        0.0,
        -10.0,
        -10.0,
        3.0,
        0.0,
        0.0,
        -10.0,
        -10.0,
        -10.0,
        10.0,
        0.0,
        0.6666666865348816
      ],
      [
        0.20000000298023224,
        0.10000000149011612,
        -10.0,
        0.0,
        0.0,
        0.0,
        0.0,
        -10.0,
        0.0,
        0.0,
        0.0,
        0.0,
        -10.0,
        -10.0,
        0.0,
        0.0,
        0.0,
        -10.0,
        -10.0,
        -10.0,
        10.0,
        0.0,
        -10.0,
        -10.0,
        -10.0,
        -10.0,
        16.0,
        0.3333333432674408
      ],
      [
        0.20000000298023224,
        0.10000000149011612,
        -10.0,
        0.0,
        0.0,
        0.0,
        0.0,
        -10.0,
        0.0,
        0.0,
        0.0,
        0.0,
        -10.0,
        -10.0,
        0.0,
        0.0,
        0.0,
        -10.0,
        -10.0,
        -10.0,
        10.0,
        0.0,
        -10.0,
        -10.0,
        -10.0,
        -10.0,
        16.0,
        0.3333333432674408
      ],
      [
        0.20000000298023224,
        0.10000000149011612,
        -10.0,
        0.0,
        0.0,
        0.0,
        0.0,
        -10.0,
        0.0,
        0.0,
        0.0,
        0.0,
        -10.0,
        -10.0,
        0.0,
        0.0,
        0.0,
        -10.0,
        -10.0,
        -10.0,
        10.0,
        0.0,
        -10.0,
        -10.0,
        -10.0,
        -10.0,
        16.0,
        0.3333333432674408
      ],
      [
        0.20000000298023224,
        0.20000000298023224,
        0.0,
        0.0,
        0.0,
        0.0,
        0.0,
        0.0,
        0.0,
        0.0,
        0.0,
        0.0,
        -10.0,
        0.0,
        0.0,
        0.0,
        0.0,
        -10.0,
        -10.0,
        10.0,
        0.0,
        0.0,
        -10.0,
        -10.0,
        -10.0,
        16.0,
        17.0,
        0.3333333432674408
      ],
      [
        0.20000000298023224,
        0.30000001192092896,
        0.0,
        0.0,
        0.0,
        0.0,
        0.0,
        0.0,
        0.0,
        0.0,
        0.0,
        0.0,
        0.0,
        0.0,
        0.0,
        0.0,
        0.0,
        -10.0,
        10.0,
        0.0,
        0.0,
        0.0,
        -10.0,
        -10.0,
        16.0,
        17.0,
        18.0,
        0.3333333432674408
      ],
      [
        0.20000000298023224,
        0.4000000059604645,
        0.0,
        0.0,
        0.0,
        0.0,
        0.0,
        0.0,
        0.0,
        0.0,
        0.0,
        0.0,
        0.0,
        0.0,
        0.0,
        0.0,
        0.0,
        10.0,
        0.0,
        0.0,
        0.0,
        0.0,
        -10.0,
        16.0,
        17.0,
        18.0,
        0.0,
        0.3333333432674408
      ],
      [
        0.30000001192092896,
        0.4000000059604645,
        0.0,
        0.0,
        0.0,
        0.0,
        0.0,
        0.0,
        0.0,
        0.0,
        0.0,
        0.0,
        10.0,
        0.0,
        0.0,
        0.0,
        0.0,
        -10.0,
        16.0,
        17.0,
        18.0,
        0.0,
        -10.0,
        -10.0,
        -10.0,
        -10.0,
        0.0,
        0.3333333432674408
      ],
      [
        0.4000000059604645,
        0.4000000059604645,
        0.0,
        0.0,
        0.0,
        0.0,
        0.0,
        0.0,
        0.0,
        0.0,
        0.0,
        0.0,
        -10.0,
        0.0,
        0.0,
        0.0,
        0.0,
        -10.0,
        -10.0,
        -10.0,
        -10.0,
        0.0,
        -10.0,
        -10.0,
        -10.0,
        -10.0,
        0.0,
        0.0
      ],
      [
        0.4000000059604645,
        0.30000001192092896,
        0.0,
        0.0,
        0.0,
        0.0,
        0.0,
        -10.0,
        0.0,
        0.0,
        0.0,
        0.0,
        -10.0,
        -10.0,
        0.0,
        0.0,
        0.0,
        -10.0,
        -10.0,
        -10.0,
        -10.0,
        -10.0,
        -10.0,
        -10.0,
        -10.0,
        -10.0,
        -10.0,
        0.0
      ],
      [
        0.30000001192092896,
        0.30000001192092896,
        0.0,
        0.0,
        0.0,
        0.0,
        0.0,
        0.0,
        0.0,
        0.0,
        0.0,
        0.0,
        -10.0,
        0.0,
        0.0,
        0.0,
        0.0,
        -10.0,
        -10.0,
        0.0,
        0.0,
        0.0,
        -10.0,
        -10.0,
        -10.0,
        -10.0,
        -10.0,
        0.0
      ],
      [
        0.30000001192092896,
        0.20000000298023224,
        0.0,
        0.0,
        0.0,
        0.0,
        0.0,
        -10.0,
        0.0,
        0.0,
        0.0,
        0.0,
        -10.0,
        -10.0,
        0.0,
        0.0,
        0.0,
        -10.0,
        -10.0,
        -10.0,
        0.0,
        0.0,
        -10.0,
        -10.0,
        -10.0,
        -10.0,
        -10.0,
        0.0
      ],
      [
        0.30000001192092896,
        0.20000000298023224,
        0.0,
        0.0,
        0.0,
        0.0,
        0.0,
        -10.0,
        0.0,
        0.0,
        0.0,
        0.0,
        -10.0,
        -10.0,
        0.0,
        0.0,
        0.0,
        -10.0,
        -10.0,
        -10.0,
        0.0,
        0.0,
        -10.0,
        -10.0,
        -10.0,
        -10.0,
        -10.0,
        0.0
      ],
      [
        0.30000001192092896,
        0.20000000298023224,
        0.0,
        0.0,
        0.0,
        0.0,
        0.0,
        -10.0,
        0.0,
        0.0,
        0.0,
        0.0,
        -10.0,
        -10.0,
        0.0,
        0.0,
        0.0,
        -10.0,
        -10.0,
        -10.0,
        0.0,
        0.0,
        -10.0,
        -10.0,
        -10.0,
        -10.0,
        -10.0,
        0.0
      ],
      [
        0.30000001192092896,
        0.20000000298023224,
        0.0,
        0.0,
        0.0,
        0.0,
        0.0,
        -10.0,
        0.0,
        0.0,
        0.0,
        0.0,
        -10.0,
        -10.0,
        0.0,
        0.0,
        0.0,
        -10.0,
        -10.0,
        -10.0,
        0.0,
        0.0,
        -10.0,
        -10.0,
        -10.0,
        -10.0,
        -10.0,
        0.0
      ],
      [
        0.30000001192092896,
        0.20000000298023224,
        0.0,
        0.0,
        0.0,
        0.0,
        0.0,
        -10.0,
        0.0,
        0.0,
        0.0,
        0.0,
        -10.0,
        -10.0,
        0.0,
        0.0,
        0.0,
        -10.0,
        -10.0,
        -10.0,
        0.0,
        0.0,
        -10.0,
        -10.0,
        -10.0,
        -10.0,
        -10.0,
        0.0
      ],
      [
        0.30000001192092896,
        0.20000000298023224,
        0.0,
        0.0,
        0.0,
        0.0,
        0.0,
        -10.0,
        0.0,
        0.0,
        0.0,
        0.0,
        -10.0,
        -10.0,
        0.0,
        0.0,
        0.0,
        -10.0,
        -10.0,
        -10.0,
        0.0,
        0.0,
        -10.0,
        -10.0,
        -10.0,
        -10.0,
        -10.0,
        0.0
      ],
      [
        0.30000001192092896,
        0.20000000298023224,
        0.0,
        0.0,
        0.0,
        0.0,
        0.0,
        -10.0,
        0.0,
        0.0,
        0.0,
        0.0,
        -10.0,
        -10.0,
        0.0,
        0.0,
        0.0,
        -10.0,
        -10.0,
        -10.0,
        0.0,
        0.0,
        -10.0,
        -10.0,
        -10.0,
        -10.0,
        -10.0,
        0.0
      ],
      [
        0.30000001192092896,
        0.20000000298023224,
        0.0,
        0.0,
        0.0,
        0.0,
        0.0,
        -10.0,
        0.0,
        0.0,
        0.0,
        0.0,
        -10.0,
        -10.0,
        0.0,
        0.0,
        0.0,
        -10.0,
        -10.0,
        -10.0,
        0.0,
        0.0,
        -10.0,
        -10.0,
        -10.0,
        -10.0,
        -10.0,
        0.0
      ],
      [
        0.20000000298023224,
        0.20000000298023224,
        0.0,
        0.0,
        0.0,
        0.0,
        0.0,
        0.0,
        0.0,
        0.0,
        0.0,
        0.0,
        -10.0,
        0.0,
        0.0,
        0.0,
        0.0,
        -10.0,
        -10.0,
        0.0,
        0.0,
        0.0,
        -10.0,
        -10.0,
        -10.0,
        0.0,
        0.0,
        0.0
      ],
      [
        0.20000000298023224,
        0.10000000149011612,
        -10.0,
        0.0,
        0.0,
        0.0,
        0.0,
        -10.0,
        0.0,
        0.0,
        0.0,
        0.0,
        -10.0,
        -10.0,
        0.0,
        0.0,
        0.0,
        -10.0,
        -10.0,
        -10.0,
        0.0,
        0.0,
        -10.0,
        -10.0,
        -10.0,
        -10.0,
        0.0,
        0.0
      ],
      [
        0.20000000298023224,
        0.10000000149011612,
        -10.0,
        0.0,
        0.0,
        0.0,
        0.0,
        -10.0,
        0.0,
        0.0,
        0.0,
        0.0,
        -10.0,
        -10.0,
        0.0,
        0.0,
        0.0,
        -10.0,
        -10.0,
        -10.0,
        0.0,
        0.0,
        -10.0,
        -10.0,
        -10.0,
        -10.0,
        0.0,
        0.0
      ],
      [
        0.20000000298023224,
        0.20000000298023224,
        0.0,
        0.0,
        0.0,
        0.0,
        0.0,
        0.0,
        0.0,
        0.0,
        0.0,
        0.0,
        -10.0,
        0.0,
        0.0,
        0.0,
        0.0,
        -10.0,
        -10.0,
        0.0,
        0.0,
        0.0,
        -10.0,
        -10.0,
        -10.0,
        0.0,
        0.0,
        0.0
      ],
      [
        0.30000001192092896,
        0.20000000298023224,
        0.0,
        0.0,
        0.0,
        0.0,
        0.0,
        -10.0,
        0.0,
        0.0,
        0.0,
        0.0,
        -10.0,
        -10.0,
        0.0,
        0.0,
        0.0,
        -10.0,
        -10.0,
        -10.0,
        0.0,
        0.0,
        -10.0,
        -10.0,
        -10.0,
        -10.0,
        -10.0,
        0.0
      ],
      [
        0.30000001192092896,
        0.20000000298023224,
        0.0,
        0.0,
        0.0,
        0.0,
        0.0,
        -10.0,
        0.0,
        0.0,
        0.0,
        0.0,
        -10.0,
        -10.0,
        0.0,
        0.0,
        0.0,
        -10.0,
        -10.0,
        -10.0,
        0.0,
        0.0,
        -10.0,
        -10.0,
        -10.0,
        -10.0,
        -10.0,
        0.0
      ],
      [
        0.30000001192092896,
        0.20000000298023224,
        0.0,
        0.0,
        0.0,
        0.0,
        0.0,
        -10.0,
        0.0,
        0.0,
        0.0,
        0.0,
        -10.0,
        -10.0,
        0.0,
        0.0,
        0.0,
        -10.0,
        -10.0,
        -10.0,
        0.0,
        0.0,
        -10.0,
        -10.0,
        -10.0,
        -10.0,
        -10.0,
        0.0
      ],
      [
        0.30000001192092896,
        0.20000000298023224,
        0.0,
        0.0,
        0.0,
        0.0,
        0.0,
        -10.0,
        0.0,
        0.0,
        0.0,
        0.0,
        -10.0,
        -10.0,
        0.0,
        0.0,
        0.0,
        -10.0,
        -10.0,
        -10.0,
        0.0,
        0.0,
        -10.0,
        -10.0,
        -10.0,
        -10.0,
        -10.0,
        0.0
      ],
      [
        0.30000001192092896,
        0.20000000298023224,
        0.0,
        0.0,
        0.0,
        0.0,
        0.0,
        -10.0,
        0.0,
        0.0,
        0.0,
        0.0,
        -10.0,
        -10.0,
        0.0,
        0.0,
        0.0,
        -10.0,
        -10.0,
        -10.0,
        0.0,
        0.0,
        -10.0,
        -10.0,
        -10.0,
        -10.0,
        -10.0,
        0.0
      ],
      [
        0.20000000298023224,
        0.20000000298023224,
        0.0,
        0.0,
        0.0,
        0.0,
        0.0,
        0.0,
        0.0,
        0.0,
        0.0,
        0.0,
        -10.0,
        0.0,
        0.0,
        0.0,
        0.0,
        -10.0,
        -10.0,
        0.0,
        0.0,
        0.0,
        -10.0,
        -10.0,
        -10.0,
        0.0,
        0.0,
        0.0
      ],
      [
        0.20000000298023224,
        0.10000000149011612,
        -10.0,
        0.0,
        0.0,
        0.0,
        0.0,
        -10.0,
        0.0,
        0.0,
        0.0,
        0.0,
        -10.0,
        -10.0,
        0.0,
        0.0,
        0.0,
        -10.0,
        -10.0,
        -10.0,
        0.0,
        0.0,
        -10.0,
        -10.0,
        -10.0,
        -10.0,
        0.0,
        0.0
      ],
      [
        0.20000000298023224,
        0.20000000298023224,
        0.0,
        0.0,
        0.0,
        0.0,
        0.0,
        0.0,
        0.0,
        0.0,
        0.0,
        0.0,
        -10.0,
        0.0,
        0.0,
        0.0,
        0.0,
        -10.0,
        -10.0,
        0.0,
        0.0,
        0.0,
        -10.0,
        -10.0,
        -10.0,
        0.0,
        0.0,
        0.0
      ],
      [
        0.20000000298023224,
        0.10000000149011612,
        -10.0,
        0.0,
        0.0,
        0.0,
        0.0,
        -10.0,
        0.0,
        0.0,
        0.0,
        0.0,
        -10.0,
        -10.0,
        0.0,
        0.0,
        0.0,
        -10.0,
        -10.0,
        -10.0,
        0.0,
        0.0,
        -10.0,
        -10.0,
        -10.0,
        -10.0,
        0.0,
        0.0
      ],
      [
        0.10000000149011612,
        0.10000000149011612,
        -10.0,
        -10.0,
        -10.0,
        -10.0,
        -10.0,
        -10.0,
        0.0,
        0.0,
        0.0,
        0.0,
        -10.0,
        0.0,
        0.0,
        0.0,
        0.0,
        -10.0,
        -10.0,
        0.0,
        0.0,
        0.0,
        -10.0,
        -10.0,
        -10.0,
        0.0,
        0.0,
        0.0
      ],
      [
        0.20000000298023224,
        0.10000000149011612,
        -10.0,
        0.0,
        0.0,
        0.0,
        0.0,
        -10.0,
        0.0,
        0.0,
        0.0,
        0.0,
        -10.0,
        -10.0,
        0.0,
        0.0,
        0.0,
        -10.0,
        -10.0,
        -10.0,
        0.0,
        0.0,
        -10.0,
        -10.0,
        -10.0,
        -10.0,
        0.0,
        0.0
      ],
      [
        0.20000000298023224,
        0.10000000149011612,
        -10.0,
        0.0,
        0.0,
        0.0,
        0.0,
        -10.0,
        0.0,
        0.0,
        0.0,
        0.0,
        -10.0,
        -10.0,
        0.0,
        0.0,
        0.0,
        -10.0,
        -10.0,
        -10.0,
        0.0,
        0.0,
        -10.0,
        -10.0,
        -10.0,
        -10.0,
        0.0,
        0.0
      ],
      [
        0.20000000298023224,
        0.10000000149011612,
        -10.0,
        0.0,
        0.0,
        0.0,
        0.0,
        -10.0,
        0.0,
        0.0,
        0.0,
        0.0,
        -10.0,
        -10.0,
        0.0,
        0.0,
        0.0,
        -10.0,
        -10.0,
        -10.0,
        0.0,
        0.0,
        -10.0,
        -10.0,
        -10.0,
        -10.0,
        0.0,
        0.0
      ],
      [
        0.20000000298023224,
        0.20000000298023224,
        0.0,
        0.0,
        0.0,
        0.0,
        0.0,
        0.0,
        0.0,
        0.0,
        0.0,
        0.0,
        -10.0,
        0.0,
        0.0,
        0.0,
        0.0,
        -10.0,
        -10.0,
        0.0,
        0.0,
        0.0,
        -10.0,
        -10.0,
        -10.0,
        0.0,
        0.0,
        0.0
      ],
      [
        0.20000000298023224,
        0.10000000149011612,
        -10.0,
        0.0,
        0.0,
        0.0,
        0.0,
        -10.0,
        0.0,
        0.0,
        0.0,
        0.0,
        -10.0,
        -10.0,
        0.0,
        0.0,
        0.0,
        -10.0,
        -10.0,
        -10.0,
        0.0,
        0.0,
        -10.0,
        -10.0,
        -10.0,
        -10.0,
        0.0,
        0.0
      ],
      [
        0.20000000298023224,
        0.10000000149011612,
        -10.0,
        0.0,
        0.0,
        0.0,
        0.0,
        -10.0,
        0.0,
        0.0,
        0.0,
        0.0,
        -10.0,
        -10.0,
        0.0,
        0.0,
        0.0,
        -10.0,
        -10.0,
        -10.0,
        0.0,
        0.0,
        -10.0,
        -10.0,
        -10.0,
        -10.0,
        0.0,
        0.0
      ],
      [
        0.20000000298023224,
        0.10000000149011612,
        -10.0,
        0.0,
        0.0,
        0.0,
        0.0,
        -10.0,
        0.0,
        0.0,
        0.0,
        0.0,
        -10.0,
        -10.0,
        0.0,
        0.0,
        0.0,
        -10.0,
        -10.0,
        -10.0,
        0.0,
        0.0,
        -10.0,
        -10.0,
        -10.0,
        -10.0,
        0.0,
        0.0
      ],
      [
        0.20000000298023224,
        0.10000000149011612,
        -10.0,
        0.0,
        0.0,
        0.0,
        0.0,
        -10.0,
        0.0,
        0.0,
        0.0,
        0.0,
        -10.0,
        -10.0,
        0.0,
        0.0,
        0.0,
        -10.0,
        -10.0,
        -10.0,
        0.0,
        0.0,
        -10.0,
        -10.0,
        -10.0,
        -10.0,
        0.0,
        0.0
      ],
      [
        0.10000000149011612,
        0.10000000149011612,
        -10.0,
        -10.0,
        -10.0,
        -10.0,
        -10.0,
        -10.0,
        0.0,
        0.0,
        0.0,
        0.0,
        -10.0,
        0.0,
        0.0,
        0.0,
        0.0,
        -10.0,
        -10.0,
        0.0,
        0.0,
        0.0,
        -10.0,
        -10.0,
        -10.0,
        0.0,
        0.0,
        0.0
      ],
      [
        0.10000000149011612,
        0.0,
        -10.0,
        -10.0,
        -10.0,
        -10.0,
        -10.0,
        -10.0,
        -10.0,
        0.0,
        0.0,
        0.0,
        -10.0,
        -10.0,
        0.0,
        0.0,
        0.0,
        -10.0,
        -10.0,
        -10.0,
        0.0,
        0.0,
        -10.0,
        -10.0,
        -10.0,
        -10.0,
        0.0,
        0.0
      ],
      [
        0.10000000149011612,
        0.10000000149011612,
        -10.0,
        -10.0,
        -10.0,
        -10.0,
        -10.0,
        -10.0,
        0.0,
        0.0,
        0.0,
        0.0,
        -10.0,
        0.0,
        0.0,
        0.0,
        0.0,
        -10.0,
        -10.0,
        0.0,
        0.0,
        0.0,
        -10.0,
        -10.0,
        -10.0,
        0.0,
        0.0,
        0.0
      ],
      [
        0.0,
        0.10000000149011612,
        -10.0,
        -10.0,
        -10.0,
        -10.0,
        -10.0,
        -10.0,
        -10.0,
        -10.0,
        -10.0,
        -10.0,
        -10.0,
        0.0,
        0.0,
        0.0,
        0.0,
        -10.0,
        0.0,
        0.0,
        0.0,
        0.0,
        -10.0,
        -10.0,
        0.0,
        0.0,
        0.0,
        0.0
      ],
      [
        0.0,
        0.10000000149011612,
        -10.0,
        -10.0,
        -10.0,
        -10.0,
        -10.0,
        -10.0,
        -10.0,
        -10.0,
        -10.0,
        -10.0,
        -10.0,
        0.0,
        0.0,
        0.0,
        0.0,
        -10.0,
        0.0,
        0.0,
        0.0,
        0.0,
        -10.0,
        -10.0,
        0.0,
        0.0,
        0.0,
        0.0
      ],
      [
        0.10000000149011612,
        0.10000000149011612,
        -10.0,
        -10.0,
        -10.0,
        -10.0,
        -10.0,
        -10.0,
        0.0,
        0.0,
        0.0,
        0.0,
        -10.0,
        0.0,
        0.0,
        0.0,
        0.0,
        -10.0,
        -10.0,
        0.0,
        0.0,
        0.0,
        -10.0,
        -10.0,
        -10.0,
        0.0,
        0.0,
        0.0
      ],
      [
        0.0,
        0.10000000149011612,
        -10.0,
        -10.0,
        -10.0,
        -10.0,
        -10.0,
        -10.0,
        -10.0,
        -10.0,
        -10.0,
        -10.0,
        -10.0,
        0.0,
        0.0,
        0.0,
        0.0,
        -10.0,
        0.0,
        0.0,
        0.0,
        0.0,
        -10.0,
        -10.0,
        0.0,
        0.0,
        0.0,
        0.0
      ],
      [
        0.0,
        0.10000000149011612,
        -10.0,
        -10.0,
        -10.0,
        -10.0,
        -10.0,
        -10.0,
        -10.0,
        -10.0,
        -10.0,
        -10.0,
        -10.0,
        0.0,
        0.0,
        0.0,
        0.0,
        -10.0,
        0.0,
        0.0,
        0.0,
        0.0,
        -10.0,
        -10.0,
        0.0,
        0.0,
        0.0,
        0.0
      ],
      [
        0.0,
        0.10000000149011612,
        -10.0,
        -10.0,
        -10.0,
        -10.0,
        -10.0,
        -10.0,
        -10.0,
        -10.0,
        -10.0,
        -10.0,
        -10.0,
        0.0,
        0.0,
        0.0,
        0.0,
        -10.0,
        0.0,
        0.0,
        0.0,
        0.0,
        -10.0,
        -10.0,
        0.0,
        0.0,
        0.0,
        0.0
      ],
      [
        0.0,
        0.10000000149011612,
        -10.0,
        -10.0,
        -10.0,
        -10.0,
        -10.0,
        -10.0,
        -10.0,
        -10.0,
        -10.0,
        -10.0,
        -10.0,
        0.0,
        0.0,
        0.0,
        0.0,
        -10.0,
        0.0,
        0.0,
        0.0,
        0.0,
        -10.0,
        -10.0,
        0.0,
        0.0,
        0.0,
        0.0
      ],
      [
        0.0,
        0.10000000149011612,
        -10.0,
        -10.0,
        -10.0,
        -10.0,
        -10.0,
        -10.0,
        -10.0,
        -10.0,
        -10.0,
        -10.0,
        -10.0,
        0.0,
        0.0,
        0.0,
        0.0,
        -10.0,
        0.0,
        0.0,
        0.0,
        0.0,
        -10.0,
        -10.0,
        0.0,
        0.0,
        0.0,
        0.0
      ],
      [
        0.0,
        0.10000000149011612,
        -10.0,
        -10.0,
        -10.0,
        -10.0,
        -10.0,
        -10.0,
        -10.0,
        -10.0,
        -10.0,
        -10.0,
        -10.0,
        0.0,
        0.0,
        0.0,
        0.0,
        -10.0,
        0.0,
        0.0,
        0.0,
        0.0,
        -10.0,
        -10.0,
        0.0,
        0.0,
        0.0,
        0.0
      ]
    ],
    "actions": [
      1,
      2,
      2,
      2,
      2,
      2,
      2,
      2,
      2,
      2,
      2,
      2,
      2,
      2,
      3,
      1,
      2,
      2,
      3,
      3,
      3,
      1,
      1,
      2,
      0,
      2,
      2,
      2,
      2,
      2,
      2,
      2,
      1,
      0,
      2,
      2,
      3,
      1,
      2,
      2,
      2,
      2,
      0,
      2,
      3,
      2,
      0,
      1,
      2,
      2,
      3,
      2,
      2,
      2,
      2,
      0,
      2,
      3,
      0,
      0,
      1,
      0,
      0,
      0,
      0,
      0,
      0,
      2
    ],
    "mo_rewards": [
      [
        0.30000001192092896,
        -1.0
      ],
      [
        0.0,
        -1.0
      ],
      [
        0.0,
        -1.0
      ],
      [
        0.0,
        -1.0
      ],
      [
        0.0,
        -1.0
      ],
      [
        0.0,
        -1.0
      ],
      [
        0.0,
        -1.0
      ],
      [
        0.0,
        -1.0
      ],
      [
        0.0,
        -1.0
      ],
      [
        0.0,
        -1.0
      ],
      [
        0.0,
        -1.0
      ],
      [
        0.0,
        -1.0
      ],
      [
        0.0,
        -1.0
      ],
      [
        0.0,
        -1.0
      ],
      [
        0.0,
        -1.0
      ],
      [
        3.0,
        -1.0
      ],
      [
        0.0,
        -1.0
      ],
      [
        0.0,
        -1.0
      ],
      [
        0.0,
        -1.0
      ],
      [
        0.0,
        -1.0
      ],
      [
        0.0,
        -1.0
      ],
      [
        0.0,
        -1.0
      ],
      [
        17.0,
        -1.0
      ],
      [
        0.0,
        -1.0
      ],
      [
        0.0,
        -1.0
      ],
      [
        0.0,
        -1.0
      ],
      [
        0.0,
        -1.0
      ],
      [
        0.0,
        -1.0
      ],
      [
        0.0,
        -1.0
      ],
      [
        0.0,
        -1.0
      ],
      [
        0.0,
        -1.0
      ],
      [
        0.0,
        -1.0
      ],
      [
        0.0,
        -1.0
      ],
      [
        0.0,
        -1.0
      ],
      [
        0.0,
        -1.0
      ],
      [
        0.0,
        -1.0
      ],
      [
        0.0,
        -1.0
      ],
      [
        0.0,
        -1.0
      ],
      [
        0.0,
        -1.0
      ],
      [
        0.0,
        -1.0
      ],
      [
        0.0,
        -1.0
      ],
      [
        0.0,
        -1.0
      ],
      [
        0.0,
        -1.0
      ],
      [
        0.0,
        -1.0
      ],
      [
        0.0,
        -1.0
      ],
      [
        0.0,
        -1.0
      ],
      [
        0.0,
        -1.0
      ],
      [
        0.0,
        -1.0
      ],
      [
        0.0,
        -1.0
      ],
      [
        0.0,
        -1.0
      ],
      [
        0.0,
        -1.0
      ],
      [
        0.0,
        -1.0
      ],
      [
        0.0,
        -1.0
      ],
      [
        0.0,
        -1.0
      ],
      [
        0.0,
        -1.0
      ],
      [
        0.0,
        -1.0
      ],
      [
        0.0,
        -1.0
      ],
      [
        0.0,
        -1.0
      ],
      [
        0.0,
        -1.0
      ],
      [
        0.0,
        -1.0
      ],
      [
        0.0,
        -1.0
      ],
      [
        0.0,
        -1.0
      ],
      [
        0.0,
        -1.0
      ],
      [
        0.0,
        -1.0
      ],
      [
        0.0,
        -1.0
      ],
      [
        0.0,
        -1.0
      ],
      [
        0.0,
        -1.0
      ],
      [
        0.0,
        -1.0
      ]
    ],
    "preference_weights_truth": [
      [
        1.0,
        0.0
      ],
      [
        0.9900498390197754,
        0.009950166568160057
      ],
      [
        0.9801986813545227,
        0.019801326096057892
      ],
      [
        0.9704455137252808,
        0.029554465785622597
      ],
      [
        0.9607894420623779,
        0.03921056166291237
      ],
      [
        0.951229453086853,
        0.04877057671546936
      ],
      [
        0.9417645335197449,
        0.05823546648025513
      ],
      [
        0.9323938488960266,
        0.06760618090629578
      ],
      [
        0.9231163263320923,
        0.07688365131616592
      ],
      [
        0.9139311909675598,
        0.08606881648302078
      ],
      [
        0.904837429523468,
        0.09516258537769318
      ],
      [
        0.8958341479301453,
        0.10416586697101593
      ],
      [
        0.8869204521179199,
        0.11307956278324127
      ],
      [
